<?xml version="1.0"?>
<opencv_storage>
<opencv_ml_svm>
  <format>3</format>
  <svmType>C_SVC</svmType>
  <kernel>
    <type>LINEAR</type></kernel>
  <C>10.</C>
  <term_criteria><iterations>1000</iterations></term_criteria>
  <var_count>2590</var_count>
  <class_count>2</class_count>
  <class_labels type_id="opencv-matrix">
    <rows>2</rows>
    <cols>1</cols>
    <dt>i</dt>
    <data>
      0 1</data></class_labels>
  <sv_total>1</sv_total>
  <support_vectors>
    <_>
      -5.79725951e-04 -5.79725951e-04 2.45335541e-04 1.94745872e-03
      1.94745872e-03 1.94745872e-03 3.12631164e-04 3.12631164e-04 0.
      -2.69816432e-04 -1.03217200e-03 -1.03217200e-03 -2.24900665e-03
      -1.63992227e-03 -2.30300729e-03 -4.68773767e-04 5.47542913e-05
      -3.34229524e-04 -2.82010529e-04 -7.19672826e-05 -7.19672826e-05
      -2.29630983e-04 3.42972227e-04 1.80914765e-03 1.44905050e-03
      1.44905050e-03 1.37498800e-03 1.37498800e-03 1.37498800e-03
      1.37498800e-03 1.37498800e-03 1.37498800e-03 1.37498800e-03
      1.37498800e-03 1.37498800e-03 1.37498800e-03 1.37498800e-03
      1.37498800e-03 1.37498800e-03 1.37498800e-03 1.37498800e-03
      1.37498800e-03 0. 0. 0. 0. 0. 4.28491767e-04 0. 7.70195737e-04
      1.03575271e-03 3.16444645e-03 1.52541534e-03 1.11512735e-03
      1.06528937e-03 5.56503597e-04 1.88532320e-03 9.24603257e-04
      -3.06211907e-04 5.18849585e-04 1.13979785e-03 -1.52723718e-04
      3.19764105e-04 6.72337774e-04 3.19764105e-04 1.14482560e-03
      1.14482560e-03 1.14482560e-03 2.34351307e-03 2.34351307e-03
      2.34351307e-03 2.11759238e-03 2.11759238e-03 -2.89567659e-04
      -5.79725951e-04 7.17823335e-04 1.50939974e-03 -3.01547901e-04
      -7.57631089e-04 -6.06482849e-04 -2.70508975e-03 -1.88415649e-03
      -2.70508975e-03 -2.36097467e-03 -2.66868528e-03 -2.26084958e-03
      -1.97397647e-04 -1.23335194e-04 1.13565975e-03 1.56415149e-03
      1.56415149e-03 1.56415149e-03 1.56415149e-03 1.13565975e-03
      1.13565975e-03 1.13565975e-03 1.13565975e-03 1.13565975e-03
      1.55533827e-03 3.53452843e-03 3.80434492e-03 2.42948951e-03
      3.80434492e-03 2.11685826e-03 2.42948951e-03 3.54437297e-03
      2.04279576e-03 2.86372914e-03 1.63496006e-03 1.37498800e-03
      2.19592149e-03 2.13751430e-03 3.04017961e-03 2.19592149e-03
      2.62441323e-03 4.40554414e-03 2.79792491e-03 3.63534829e-03
      4.40554414e-03 2.85704434e-03 3.03055602e-03 4.40554414e-03
      4.17538173e-03 4.17538173e-03 3.03314487e-03 1.06026174e-03
      1.06026174e-03 1.06026174e-03 1.06026174e-03 1.13432412e-03
      1.13432412e-03 1.13432412e-03 1.39429618e-03 1.06026174e-03
      2.22838295e-04 -1.54180266e-03 -1.54180266e-03 -1.62286009e-03
      -1.46937196e-03 -1.81680627e-03 -1.62286009e-03 -1.15219667e-03
      9.04869448e-05 1.44253357e-03 2.34351307e-03 1.87102531e-03
      2.57367548e-03 7.42604316e-04 1.94745872e-03 1.43849954e-03
      -5.93229088e-05 2.31821992e-04 -2.04834342e-03 -2.36097467e-03
      -2.24019354e-03 -1.29648577e-03 -1.46999769e-03 -2.24019354e-03
      -1.29648577e-03 6.46860572e-04 3.62807827e-04 3.34528252e-03
      2.50785914e-03 3.34528252e-03 3.34528252e-03 3.34528252e-03
      3.34528252e-03 3.34528252e-03 2.50785914e-03 2.50785914e-03
      2.50785914e-03 1.56415149e-03 1.92018843e-03 2.88523082e-03
      4.34589479e-03 4.61571105e-03 5.05377026e-03 6.66138902e-03
      5.82396565e-03 6.06470509e-03 6.66138902e-03 6.66138902e-03
      6.83490094e-03 6.83490094e-03 5.46004577e-03 5.46004577e-03
      5.05220983e-03 5.05220983e-03 5.05220983e-03 4.79223765e-03
      4.79223765e-03 4.73957881e-03 4.73957881e-03 4.47960664e-03
      4.17538173e-03 4.17538173e-03 3.17590870e-03 1.56118418e-03
      1.13432412e-03 1.44695526e-03 1.44695526e-03 1.70692732e-03
      1.70692732e-03 1.70692732e-03 1.70692732e-03 1.70692732e-03
      1.70692732e-03 1.70692732e-03 1.70692732e-03 1.70692732e-03
      6.09531940e-04 -1.41008897e-03 -1.32362882e-03 -1.65766326e-03
      -1.65766326e-03 -1.97029440e-03 -1.97029440e-03 -1.58360088e-03
      -7.78601912e-04 -7.78601912e-04 1.74861401e-03 1.19868747e-03
      1.47064053e-03 -9.11976269e-04 -8.49655946e-04 -4.59062430e-04
      -6.32574258e-04 -4.59062430e-04 -4.59062430e-04 -4.59062430e-04
      -4.59062430e-04 2.82807770e-04 3.03265126e-03 3.34528252e-03
      3.34528252e-03 3.34528252e-03 3.34528252e-03 3.34528252e-03
      3.34528252e-03 3.34528252e-03 3.34528252e-03 3.34528252e-03
      3.34528252e-03 3.34528252e-03 3.34528252e-03 3.34528252e-03
      4.12981119e-03 4.58589429e-03 5.11609018e-03 6.83490094e-03
      6.83490094e-03 6.83490094e-03 6.83490094e-03 6.83490094e-03
      6.83490094e-03 6.83490094e-03 6.83490094e-03 6.83490094e-03
      6.83490094e-03 6.83490094e-03 6.83490094e-03 6.83490094e-03
      6.83490094e-03 6.83490094e-03 5.46004577e-03 5.46004577e-03
      5.46004577e-03 5.05220983e-03 4.82204743e-03 5.22988290e-03
      2.52502528e-03 1.70692732e-03 1.70692732e-03 1.70692732e-03
      2.11476302e-03 2.11476302e-03 2.11476302e-03 2.11476302e-03
      2.11476302e-03 2.11476302e-03 2.11476302e-03 1.70692732e-03
      1.70692732e-03 1.70692732e-03 1.70692732e-03 8.69503943e-04
      -1.32362882e-03 -1.32362882e-03 -1.32362882e-03 -1.63133931e-03
      -1.63133931e-03 -1.63133931e-03 -1.63133931e-03 -1.94397056e-03
      8.05462769e-04 1.19868747e-03 -2.11925537e-04 -5.88610419e-04
      -4.59062430e-04 -4.59062430e-04 -4.59062430e-04 -4.59062430e-04
      -4.59062430e-04 -4.59062430e-04 2.82807770e-04 3.34528252e-03
      3.34528252e-03 3.34528252e-03 3.34528252e-03 3.34528252e-03
      3.34528252e-03 3.34528252e-03 3.34528252e-03 3.17109493e-03
      1.48852880e-03 2.93744681e-03 3.34528252e-03 3.34528252e-03
      3.34528252e-03 3.65299312e-03 4.12981119e-03 4.12981119e-03
      5.61806653e-03 6.56508468e-03 6.83490094e-03 6.83490094e-03
      6.83490094e-03 6.83490094e-03 6.83490094e-03 6.83490094e-03
      6.83490094e-03 6.83490094e-03 6.83490094e-03 6.83490094e-03
      6.83490094e-03 6.83490094e-03 6.83490094e-03 6.83490094e-03
      6.83490094e-03 6.83490094e-03 6.83490094e-03 6.83490094e-03
      6.60473853e-03 6.60473853e-03 4.30771615e-03 3.64310667e-03
      2.11476302e-03 2.11476302e-03 3.48961866e-03 3.48961866e-03
      2.94958521e-03 2.11463054e-03 2.11463054e-03 2.71942280e-03
      3.48961866e-03 3.48961866e-03 3.48961866e-03 3.18190805e-03
      3.18190805e-03 3.18190805e-03 2.77407235e-03 1.27733964e-03
      -2.16999999e-03 -1.22363621e-03 -1.22350361e-03 -1.63133931e-03
      -1.63133931e-03 -1.63133931e-03 -1.09346630e-03 8.02086492e-04
      -1.74957118e-03 -5.88610419e-04 -4.59062430e-04 -4.59062430e-04
      -4.59062430e-04 -4.59062430e-04 -5.12267143e-05 3.34528252e-03
      3.78334150e-03 4.81551327e-03 3.34528252e-03 3.34528252e-03
      3.34528252e-03 3.34528252e-03 3.34528252e-03 1.24996004e-03
      -1.51351851e-04 3.25466302e-04 1.08206877e-03 -2.10034596e-05
      -2.10034596e-05 -1.99090384e-04 -1.46431252e-04 2.01295293e-03
      9.93274036e-04 4.67797508e-03 4.75203758e-03 5.19009680e-03
      5.45991305e-03 5.45991305e-03 5.38585056e-03 5.38585056e-03
      5.45991305e-03 5.45991305e-03 5.45991305e-03 5.45991305e-03
      5.45991305e-03 5.45991305e-03 5.45991305e-03 5.45991305e-03
      5.45991305e-03 5.45991305e-03 6.83490094e-03 6.83490094e-03
      6.83490094e-03 5.24377171e-03 5.63621335e-03 5.35531342e-03
      3.99854593e-03 2.71658716e-03 7.86062446e-04 4.59062430e-04
      1.72497763e-03 4.59062430e-04 6.89224864e-04 -7.51148385e-04
      1.39056135e-03 3.04840039e-04 9.21547646e-04 3.48961866e-03
      3.18190805e-03 3.18190805e-03 3.18190805e-03 3.18190805e-03
      2.03708233e-03 2.03708233e-03 2.03708233e-03 -3.86212778e-04
      1.51351851e-04 1.51351851e-04 1.51351851e-04 1.51351851e-04
      -9.93341208e-04 -7.40882941e-04 -6.18013204e-04 2.48812983e-04
      -4.59062430e-04 -4.59062430e-04 2.08745332e-04 1.65779574e-03
      3.34528252e-03 4.79137991e-03 4.26439662e-03 4.26439662e-03
      5.08532999e-03 3.78334150e-03 3.78334150e-03 2.93744681e-03
      1.17576506e-03 -4.59062430e-04 -4.95467044e-04 -9.02722066e-04
      1.15527760e-03 2.48812983e-04 -2.10034596e-05 -4.59062430e-04
      -4.59062430e-04 -1.51351851e-04 -1.03025450e-04 1.07325555e-03
      3.03055602e-03 2.20962288e-03 3.03055602e-03 1.78113102e-03
      3.15598655e-03 2.52225390e-03 3.58447828e-03 3.97691969e-03
      3.82379419e-03 4.35568253e-03 2.55288696e-03 3.92719079e-03
      2.35529453e-03 3.19271791e-03 3.36622959e-03 2.35529453e-03
      2.42935680e-03 2.42935680e-03 2.42935680e-03 2.42935680e-03
      2.42935680e-03 2.42935680e-03 2.19919439e-03 1.72670663e-03
      8.06496770e-04 4.59062430e-04 4.59062430e-04 4.59062430e-04
      3.81514314e-04 3.23174463e-04 1.47498061e-03 2.46949698e-04
      -8.39985500e-04 -2.23277952e-04 7.71167281e-04 2.03708233e-03
      2.03708233e-03 2.03708233e-03 2.03708233e-03 2.50957021e-03
      3.57774459e-03 1.73285755e-03 1.52355118e-03 1.51351851e-04
      1.51351851e-04 1.51351851e-04 3.81514314e-04 3.81514314e-04
      1.51678714e-05 -2.10034596e-05 -4.59062430e-04 -5.12267143e-05
      3.03265126e-03 3.34528252e-03 4.35865112e-03 4.37195180e-03
      4.26683016e-03 5.27776545e-03 4.82168235e-03 5.25017409e-03
      1.81718357e-03 1.70066359e-03 1.75353955e-03 1.32504781e-03
      1.32504781e-03 0. 4.81386407e-04 2.48812983e-04 2.48812983e-04
      -4.59062430e-04 -4.59062430e-04 -1.22925814e-03 1.58950774e-04
      1.78113102e-03 7.70195737e-04 1.01093529e-03 9.43707593e-04
      7.70195737e-04 0. 0. 0. 0. 0. 0. 1.37485552e-03 0. 0.
      1.37485552e-03 1.37485552e-03 1.37485552e-03 1.37485552e-03
      1.37485552e-03 1.78269122e-03 2.04266328e-03 2.09532236e-03
      1.78269122e-03 2.04758393e-03 1.34493364e-03 4.98786219e-04
      1.51351851e-04 1.51351851e-04 1.51351851e-04 3.81514314e-04
      5.18429501e-04 1.47498061e-03 2.42083435e-04 4.32859291e-04
      -9.14047996e-04 -1.06753618e-03 1.13737083e-03 3.03655537e-03
      3.33463168e-03 4.65128012e-03 4.61202068e-03 4.76550870e-03
      4.58800560e-03 3.18190805e-03 3.18190805e-03 1.51351851e-04
      1.51351851e-04 3.81514314e-04 -9.93473688e-04 -1.32907636e-03
      3.86832253e-04 2.82807770e-04 3.03265126e-03 3.34528252e-03
      3.19179427e-03 2.79887230e-03 3.38104018e-03 3.65085667e-03
      3.80434492e-03 3.90673289e-03 3.12631164e-04 6.83935184e-04
      1.60761911e-03 9.43707593e-04 8.37423373e-04 0. 0. 9.96602233e-04
      2.48812983e-04 -2.10034596e-05 -4.59062430e-04 -4.59062430e-04
      -1.22925814e-03 -2.70508975e-03 -2.69816432e-04 0. 0. 0. 0. 0. 0.
      0. 0. 0. 0. 0. 0. 0. 0. 0. 0. -3.07710579e-04 -3.07710579e-04
      -3.07710579e-04 1.06714491e-03 -3.07710579e-04 1.06714491e-03
      1.06714491e-03 8.36982450e-04 -4.89689293e-04 1.51351851e-04
      1.51351851e-04 1.51351851e-04 3.81514314e-04 1.85347500e-03
      1.06714491e-03 1.06714491e-03 1.47498061e-03 1.73495268e-03
      1.73495268e-03 1.73495268e-03 2.73131952e-03 3.23962164e-03
      4.02871845e-03 4.02871845e-03 4.02871845e-03 3.79855605e-03
      3.18190805e-03 2.70508975e-03 1.86766637e-03 1.03025450e-04
      -9.53038689e-05 -1.47029187e-03 -4.56064590e-04 2.48812983e-04
      3.03265126e-03 3.19179427e-03 3.19179427e-03 2.84435996e-03
      2.55782017e-03 3.65085667e-03 1.86816545e-03 1.60819350e-03 0.
      -1.53488203e-04 -1.53488203e-04 -1.53488203e-04 -1.53488203e-04 0.
      0. -1.53488203e-04 1.49053556e-03 9.53247800e-05 -6.12550648e-04
      -4.59062430e-04 -4.59062430e-04 -4.59062430e-04 -2.19613058e-03
      -2.69816432e-04 0. 0. 0. 0. 0. 0. 0. 0. 0. 0. -3.07710579e-04
      -3.07710579e-04 -3.07710579e-04 -3.07710579e-04 -3.07710579e-04
      -3.07710579e-04 -3.07710579e-04 -3.07710579e-04 -3.07710579e-04
      -3.07710579e-04 -3.07710579e-04 -3.07710579e-04 -3.07710579e-04
      -5.37873013e-04 -1.96537375e-03 1.51351851e-04 1.51351851e-04
      1.51351851e-04 3.81514314e-04 1.38098723e-03 -3.07710579e-04
      -7.84528733e-04 -7.84528733e-04 5.90326730e-04 9.98162432e-04
      9.98162432e-04 1.47498061e-03 9.98162432e-04 3.08501092e-03
      4.02871845e-03 3.62088298e-03 2.01586494e-03 2.97846179e-03
      2.70508975e-03 2.70508975e-03 2.70508975e-03 1.10338361e-03
      -1.23664376e-03 -1.38820894e-03 3.74052674e-03 3.19179427e-03
      3.19179427e-03 2.84435996e-03 2.84435996e-03 2.04886100e-03
      2.89558666e-03 1.55553431e-03 -1.53488203e-04 -1.53488203e-04
      -5.00922557e-04 -5.00922557e-04 -5.00922557e-04 -1.53488203e-04
      -1.53488203e-04 -1.53488203e-04 -1.53488203e-04 1.28261966e-03
      -2.52109574e-04 -6.12550648e-04 -6.12550648e-04 -4.59062430e-04
      -6.12550648e-04 -1.82640599e-03 -1.53488203e-04 -1.53488203e-04 0.
      0. 0. -4.61198768e-04 -4.61198768e-04 -4.61198768e-04
      -3.07710579e-04 -3.07710579e-04 -3.07710579e-04 -3.07710579e-04
      -3.07710579e-04 -3.07710579e-04 -3.07710579e-04 -3.07710579e-04
      -3.07710579e-04 -3.07710579e-04 -3.07710579e-04 -3.07710579e-04
      -7.84528733e-04 -7.84528733e-04 -7.84528733e-04 -7.84528733e-04
      -1.01469120e-03 -2.44219205e-03 -3.25466302e-04 -3.25466302e-04
      -3.25466302e-04 -9.53038689e-05 1.94174633e-03 5.90326730e-04
      -7.84528733e-04 -7.84528733e-04 -7.84528733e-04 -7.84528733e-04
      -7.84528733e-04 -7.84528733e-04 5.90326730e-04 -7.84528733e-04
      -7.84528733e-04 6.38408237e-04 2.01132079e-03 1.96321961e-03
      2.70508975e-03 2.70508975e-03 2.70508975e-03 2.11431878e-03
      -1.38075522e-03 8.23090435e-04 3.89966974e-03 3.11417645e-03
      2.84435996e-03 2.84435996e-03 2.43652426e-03 7.75128952e-04
      -5.00922557e-04 -5.00922557e-04 -1.53488203e-04 -5.00922557e-04
      -5.00922557e-04 -5.00922557e-04 -5.00922557e-04 -5.00922557e-04
      -1.53488203e-04 -1.53488203e-04 -5.00922557e-04 2.71684432e-04
      -9.59984958e-04 -9.59984958e-04 -6.12550648e-04 -6.12550648e-04
      -1.73018069e-03 -1.97259174e-03 -1.07844954e-03 -8.08633107e-04
      -8.08633107e-04 -4.61198768e-04 -4.61198768e-04 -8.08633107e-04
      -8.08633107e-04 -8.08633107e-04 -9.38016921e-04 -7.84528733e-04
      -7.84528733e-04 -9.38016921e-04 -8.08633107e-04 -1.28545135e-03
      -9.38016921e-04 -7.84528733e-04 -7.84528733e-04 -7.84528733e-04
      -9.38016921e-04 -7.84528733e-04 -7.84528733e-04 -7.84528733e-04
      -7.84528733e-04 -7.84528733e-04 -1.01469120e-03 -1.36865664e-03
      -3.25466302e-04 -3.25466302e-04 -3.25466302e-04 -9.53038689e-05
      2.39384011e-03 -7.84528733e-04 -7.84528733e-04 -7.84528733e-04
      -7.84528733e-04 -7.84528733e-04 -7.84528733e-04 -7.84528733e-04
      -7.84528733e-04 -7.84528733e-04 -7.84528733e-04 -7.84528733e-04
      -1.24396838e-03 6.47395034e-04 2.70508975e-03 2.70508975e-03
      2.70508975e-03 1.86797476e-03 3.76705750e-04 1.84207712e-03
      4.06119460e-03 2.84435996e-03 2.84435996e-03 2.84435996e-03
      4.15003044e-04 -2.21156725e-03 -5.00922557e-04 -5.00922557e-04
      -5.00922557e-04 -5.00922557e-04 -9.30868264e-05 -9.30868264e-05
      -9.30868264e-05 -9.30868264e-05 -9.30868264e-05 -5.00922557e-04
      -5.00922557e-04 1.23188202e-03 -6.90168526e-04 -9.59984958e-04
      -9.59984958e-04 -9.59984958e-04 -1.79740833e-03 -3.51372291e-03
      -2.57516193e-04 -8.08633107e-04 1.23002537e-05 -1.84080505e-03
      -8.08633107e-04 1.23002537e-05 -8.08633107e-04 -8.08633107e-04
      -1.28545135e-03 -9.38016921e-04 -9.38016921e-04 -1.28545135e-03
      -8.08633107e-04 -1.28545135e-03 -1.28545135e-03 -9.38016921e-04
      -7.84528733e-04 -9.38016921e-04 8.95367339e-05 8.95367339e-05
      2.43024930e-04 -4.41712706e-04 -4.41712706e-04 4.36971080e-04
      -6.13113516e-04 -2.44219205e-03 -3.25466302e-04 -3.25466302e-04
      -3.25466302e-04 -9.53038689e-05 4.05618688e-04 -7.84528733e-04
      -7.84528733e-04 -7.84528733e-04 -7.84528733e-04 -4.76818183e-04
      -7.84528733e-04 -7.84528733e-04 -7.84528733e-04 -7.84528733e-04
      -7.84528733e-04 -4.76818183e-04 -1.05441501e-03 -9.79513628e-04
      3.01280036e-03 3.01280036e-03 3.01280036e-03 1.86797476e-03
      4.24896693e-03 1.05731282e-03 2.30281008e-03 2.84435996e-03
      1.52771175e-03 2.01929850e-03 3.10275936e-04 -1.69868837e-03
      -3.15492769e-04 1.10337290e-03 6.11786149e-04 5.26225544e-04
      5.82818284e-05 2.44191411e-04 1.02931040e-03 2.98374853e-05
      2.25092532e-04 -3.36199650e-04 5.26225544e-04 2.12671491e-03
      3.67576606e-04 6.33131887e-04 2.14049104e-03 8.18294648e-04
      2.19836016e-03 1.71955136e-04 1.82735384e-04 1.24634069e-04
      -2.35100440e-03 -8.86195572e-04 -3.52206844e-04 1.88598537e-03
      1.70558703e-03 7.17411109e-04 2.32890176e-04 1.07102864e-03
      -6.96259027e-04 -4.33616660e-04 4.87238838e-04 1.24766608e-04
      1.03073835e-03 -2.08223064e-04 2.29919955e-04 -7.18444993e-04
      -2.89953226e-04 6.32312964e-04 -6.47433335e-04 -4.25092818e-04
      1.49393838e-03 6.90420798e-04 -4.89050180e-05 -8.85366244e-05
      -5.87442541e-04 2.33490835e-04 -4.41522134e-04 4.36061848e-04
      2.58658500e-03 2.35496764e-03 8.06600379e-04 -4.44501347e-04
      -1.07409642e-03 -1.10183319e-03 -3.73944233e-04 7.21869350e-04
      8.95381207e-04 7.00632576e-04 -1.36790783e-04 -1.02136575e-03
      -1.88971008e-03 4.90524690e-04 1.35444361e-03 3.01280036e-03
      1.98062835e-03 8.35802814e-04 4.33642929e-03 -1.33998574e-05
      3.06461100e-03 1.52771175e-03 2.30162448e-04 2.30162448e-04
      1.22963532e-03 -1.83288835e-03 7.36583723e-04 6.89224864e-04
      6.89224864e-04 1.68869784e-03 1.68869784e-03 2.00587302e-03
      1.00640010e-03 6.89224864e-04 6.89224864e-04 6.89224864e-04
      6.89224864e-04 1.48892147e-03 5.47337695e-04 2.30162448e-04
      7.02650228e-04 2.30162448e-04 2.30162448e-04 1.57950970e-03
      2.03559292e-03 5.47337695e-04 7.02650228e-04 2.30162448e-04
      4.99978894e-04 1.93751079e-03 1.51238020e-03 1.00342091e-03
      2.30162448e-04 2.30162448e-04 1.22963532e-03 1.93751079e-03
      1.17718067e-03 1.49435597e-03 6.68221444e-04 6.68221444e-04
      1.76309934e-03 9.38037876e-04 -3.35694145e-04 1.35633664e-03
      1.58225733e-03 -1.34463224e-03 1.53293693e-03 -6.66980108e-04
      8.41452042e-04 2.98062339e-04 1.16395857e-03 7.07875413e-04
      7.07875413e-04 1.01558596e-03 2.31176033e-03 1.52156595e-03
      1.06548273e-03 5.56523562e-04 5.56523562e-04 5.56523562e-04
      5.56523562e-04 1.52156595e-03 1.52156595e-03 1.52156595e-03
      5.56523562e-04 5.56523562e-04 1.72872911e-04 -5.18118031e-04
      2.55671726e-03 1.98062835e-03 1.52454525e-03 2.21079076e-03
      1.24566618e-03 8.62425193e-04 2.38068355e-03 8.56138475e-04
      2.30162448e-04 2.30162448e-04 2.30162448e-04 2.78488849e-04
      -6.12763572e-04 6.89224864e-04 6.89224864e-04 6.89224864e-04
      6.89224864e-04 6.89224864e-04 6.89224864e-04 6.89224864e-04
      6.89224864e-04 6.89224864e-04 6.89224864e-04 1.34122639e-03
      4.99978894e-04 2.30162448e-04 2.30162448e-04 2.30162448e-04
      2.30162448e-04 2.30162448e-04 2.30162448e-04 2.30162448e-04
      2.30162448e-04 2.30162448e-04 2.30162448e-04 2.30162448e-04
      2.30162448e-04 1.62630326e-18 1.62630326e-18 1.62630326e-18
      1.62630326e-18 2.69816432e-04 2.30162448e-04 1.62630326e-18
      1.62630326e-18 1.62630326e-18 2.69816432e-04 2.69816432e-04
      1.62630326e-18 1.62630326e-18 1.62630326e-18 1.62630326e-18
      1.62630326e-18 1.01558596e-03 2.01505888e-03 7.45769532e-04
      7.45769532e-04 7.45769532e-04 7.45769532e-04 1.01558596e-03
      2.48617190e-03 3.60769569e-04 2.86707102e-04 2.86707102e-04
      5.56523562e-04 2.86707102e-04 5.56523562e-04 5.56523562e-04
      5.56523562e-04 5.56523562e-04 5.56523562e-04 5.56523562e-04
      -4.63301985e-04 1.11670943e-03 1.52454525e-03 1.01558596e-03
      1.01558596e-03 9.85776423e-04 2.89642136e-03 9.36487631e-04
      1.57315913e-03 3.83650651e-04 3.83650651e-04 2.30162448e-04
      2.30162448e-04 2.30162448e-04 -7.99030298e-04 8.42713052e-04
      8.42713052e-04 6.89224864e-04 6.89224864e-04 6.89224864e-04
      6.89224864e-04 6.89224864e-04 6.89224864e-04 6.89224864e-04
      6.89224864e-04 2.23152572e-03 1.62630326e-18 1.62630326e-18
      1.62630326e-18 1.62630326e-18 1.62630326e-18 1.62630326e-18
      1.62630326e-18 1.62630326e-18 1.62630326e-18 1.62630326e-18
      1.62630326e-18 1.62630326e-18 1.62630326e-18 1.62630326e-18
      1.62630326e-18 1.62630326e-18 1.62630326e-18 1.62630326e-18
      1.62630326e-18 1.62630326e-18 1.62630326e-18 1.62630326e-18
      1.62630326e-18 3.07710579e-04 1.62630326e-18 1.62630326e-18
      1.62630326e-18 3.07710579e-04 3.07710579e-04 3.07710579e-04
      3.07710579e-04 3.07710579e-04 3.07710579e-04 3.07710579e-04
      3.07710579e-04 3.07710579e-04 1.74667093e-03 1.29756611e-03
      -1.51351851e-04 -1.51351851e-04 -1.51351851e-04 -1.51351851e-04
      5.56523562e-04 5.56523562e-04 2.86707102e-04 2.86707102e-04
      2.86707102e-04 2.86707102e-04 -1.16331002e-03 -3.59402038e-04
      7.45769532e-04 7.45769532e-04 7.45769532e-04 9.75931995e-04
      7.00632576e-04 9.57396172e-04 2.13474641e-03 7.31085020e-04
      7.31085020e-04 3.83650651e-04 2.30162448e-04 -1.60761911e-03
      1.89245999e-04 6.12550648e-04 6.12550648e-04 4.59062430e-04
      4.59062430e-04 4.59062430e-04 4.59062430e-04 4.59062430e-04
      6.12550648e-04 4.59062430e-04 4.59062430e-04 2.45744665e-03
      3.07710579e-04 1.62630326e-18 1.62630326e-18 1.62630326e-18
      1.62630326e-18 1.62630326e-18 1.62630326e-18 1.62630326e-18
      1.62630326e-18 1.62630326e-18 1.62630326e-18 1.62630326e-18
      1.62630326e-18 1.62630326e-18 1.62630326e-18 1.62630326e-18
      1.62630326e-18 3.07710579e-04 1.62630326e-18 1.62630326e-18
      1.62630326e-18 1.62630326e-18 3.07710579e-04 3.07710579e-04
      3.07710579e-04 3.07710579e-04 3.07710579e-04 3.07710579e-04
      3.07710579e-04 3.07710579e-04 3.07710579e-04 3.07710579e-04
      3.07710579e-04 3.07710579e-04 3.07710579e-04 3.07710579e-04
      8.85307381e-04 1.61279313e-04 -1.51351851e-04 -1.51351851e-04
      -1.51351851e-04 -1.51351851e-04 -1.51351851e-04 -1.51351851e-04
      -1.51351851e-04 -1.51351851e-04 -1.51351851e-04 -4.98786219e-04
      -1.76102610e-03 -1.06727739e-03 7.84528733e-04 3.07710579e-04
      3.07710579e-04 5.37873013e-04 2.85777473e-03 5.53055841e-04
      7.93621235e-04 5.00922557e-04 5.00922557e-04 5.00922557e-04
      5.00922557e-04 -1.51869841e-03 3.50236187e-05 9.59984958e-04
      9.59984958e-04 9.59984958e-04 6.12550648e-04 6.12550648e-04
      6.12550648e-04 9.59984958e-04 9.59984958e-04 9.59984958e-04
      6.12550648e-04 7.35448208e-04 4.61198768e-04 1.53488203e-04
      5.00922557e-04 5.00922557e-04 1.62630326e-18 1.62630326e-18
      1.62630326e-18 1.53488203e-04 1.53488203e-04 1.53488203e-04
      1.62630326e-18 3.07710579e-04 1.62630326e-18 1.62630326e-18
      1.53488203e-04 1.53488203e-04 3.07710579e-04 3.07710579e-04
      3.07710579e-04 3.07710579e-04 3.07710579e-04 3.07710579e-04
      3.07710579e-04 3.07710579e-04 3.07710579e-04 3.07710579e-04
      3.07710579e-04 3.07710579e-04 3.07710579e-04 3.07710579e-04
      3.07710579e-04 3.07710579e-04 3.07710579e-04 3.07710579e-04
      3.07710579e-04 3.07710579e-04 2.33634491e-03 1.70045439e-03
      -1.51351851e-04 -1.51351851e-04 -1.51351851e-04 -1.51351851e-04
      -1.51351851e-04 3.25466302e-04 3.25466302e-04 3.25466302e-04
      3.25466302e-04 3.25466302e-04 -2.56674568e-04 -5.90459269e-04
      7.84528733e-04 7.84528733e-04 7.84528733e-04 9.54289804e-04
      1.05136598e-03 1.86515995e-03 1.63573516e-03 5.00922557e-04
      5.00922557e-04 5.00922557e-04 5.00922557e-04 7.24307829e-05
      -3.79897596e-04 9.59984958e-04 9.59984958e-04 9.59984958e-04
      9.59984958e-04 9.59984958e-04 9.59984958e-04 9.59984958e-04
      9.59984958e-04 9.59984958e-04 9.59984958e-04 2.15485157e-03
      4.61198768e-04 5.00922557e-04 5.00922557e-04 5.00922557e-04
      5.00922557e-04 1.53488203e-04 1.53488203e-04 1.53488203e-04
      5.00922557e-04 5.00922557e-04 1.53488203e-04 3.07710579e-04
      3.07710579e-04 4.61198768e-04 4.61198768e-04 4.61198768e-04
      4.61198768e-04 3.07710579e-04 3.07710579e-04 3.07710579e-04
      4.61198768e-04 4.61198768e-04 3.07710579e-04 3.07710579e-04
      3.07710579e-04 7.84528733e-04 3.07710579e-04 3.07710579e-04
      3.07710579e-04 3.07710579e-04 3.07710579e-04 7.84528733e-04
      7.84528733e-04 7.84528733e-04 7.84528733e-04 7.84528733e-04
      2.51508667e-03 1.70045439e-03 3.25466302e-04 3.25466302e-04
      3.25466302e-04 3.25466302e-04 3.25466302e-04 3.25466302e-04
      3.25466302e-04 3.25466302e-04 3.25466302e-04 3.25466302e-04
      -4.05618688e-04 -8.50431330e-04 7.84528733e-04 7.84528733e-04
      7.84528733e-04 2.34067533e-03 2.52191210e-03 -6.54395553e-05
      1.62288838e-03 8.08633107e-04 5.00922557e-04 5.00922557e-04
      5.00922557e-04 -3.26933630e-04 -6.49714028e-04 9.59984958e-04
      9.59984958e-04 9.59984958e-04 9.59984958e-04 9.59984958e-04
      9.59984958e-04 9.59984958e-04 9.59984958e-04 9.59984958e-04
      9.59984958e-04 3.81702930e-03 8.08633107e-04 5.00922557e-04
      5.00922557e-04 5.00922557e-04 5.00922557e-04 1.00988173e-03
      1.53309456e-03 5.00922557e-04 8.08633107e-04 8.08633107e-04
      8.08633107e-04 8.08633107e-04 1.84080505e-03 8.08633107e-04
      8.08633107e-04 8.08633107e-04 8.08633107e-04 4.61198768e-04
      4.61198768e-04 1.97018893e-03 8.08633107e-04 8.08633107e-04
      4.61198768e-04 7.84528733e-04 7.84528733e-04 1.81670068e-03
      9.38016921e-04 1.28545135e-03 9.38016921e-04 7.84528733e-04
      7.84528733e-04 7.84528733e-04 7.84528733e-04 7.84528733e-04
      7.84528733e-04 7.84528733e-04 1.51561375e-03 2.27305759e-03
      1.35763828e-03 3.25466302e-04 3.25466302e-04 3.25466302e-04
      3.25466302e-04 3.25466302e-04 3.25466302e-04 3.25466302e-04
      3.25466302e-04 3.25466302e-04 -1.54785544e-03 4.41712706e-04
      7.84528733e-04 7.84528733e-04 7.84528733e-04 1.28545135e-03
      1.20007503e-03 1.81250076e-03 3.16999224e-03 2.10618251e-03
      1.79847179e-03 5.00922557e-04 9.30868264e-05 -2.32589850e-03
      -8.13241524e-04 5.52149257e-04 1.84969860e-03 5.52149257e-04
      1.95945799e-03 1.95945799e-03 1.27716025e-03 9.59984958e-04
      9.59984958e-04 9.59984958e-04 9.59984958e-04 4.21981839e-03
      1.87244301e-03 -5.66354895e-04 -4.01577679e-04 -4.01577679e-04
      -1.69499882e-03 1.71163410e-03 1.53829565e-03 1.48541969e-03
      8.08633107e-04 -1.23002537e-05 9.87172709e-04 2.01934460e-03
      1.76876970e-03 5.77785075e-04 3.66546476e-04 3.87079199e-04
      -9.10470088e-04 8.90028095e-05 1.94210815e-03 1.25981052e-03
      1.25981052e-03 -1.63599179e-04 7.35524751e-04 5.62501838e-04
      1.59467384e-03 9.12376156e-04 4.38877149e-04 7.00126344e-04
      -8.95367339e-05 5.62501838e-04 1.44118560e-03 4.41712706e-04
      7.84528733e-04 7.84528733e-04 7.84528733e-04 9.38016921e-04
      2.65785051e-03 2.73262640e-03 1.35763828e-03 1.35763828e-03
      3.25466302e-04 3.25466302e-04 3.25466302e-04 1.35763828e-03
      1.81372149e-03 7.81549548e-04 3.25466302e-04 3.25466302e-04
      3.09378025e-04 4.41712706e-04 1.81670068e-03 7.84528733e-04
      7.84528733e-04 1.74153445e-03 2.74718739e-03 6.42846455e-04
      3.89964879e-03 3.42283049e-03 1.79847179e-03 1.97288324e-03
      -6.16330246e-04 -1.96862710e-03 -2.76083266e-03 -2.05469690e-03
      2.98095965e-05 -7.59853458e-04 -7.02650228e-04 -1.52771175e-03
      -1.22963532e-03 -8.95600882e-04 -1.28683855e-03 -1.22963532e-03
      -1.01982558e-03 4.26310406e-04 -1.21542260e-04 -1.12101517e-03
      -1.61463534e-03 -1.00640010e-03 -1.47888798e-03 -4.12751548e-03
      -4.70278668e-04 2.74900638e-04 -2.44647008e-03 -1.90308027e-03
      4.88455989e-04 -1.61513826e-03 -1.56777934e-03 -9.90328030e-04
      -6.63778745e-04 -2.47785822e-03 -3.80263664e-04 -1.28758969e-04
      -9.08979157e-04 -4.52895940e-04 -2.84303981e-03 -3.05980700e-03
      9.29647533e-04 -1.14812190e-03 -7.70071230e-04 2.60070292e-03
      1.83676381e-03 1.39582975e-04 -1.20389064e-04 -1.03680545e-03
      -2.23603612e-03 -2.27046665e-03 -2.48812983e-04 -7.57772184e-04
      -7.85363663e-04 -4.37929295e-04 1.02566171e-03 6.67112647e-04
      -1.21683464e-03 3.25905130e-05 -1.24442612e-03 -8.51984485e-04
      -1.21683464e-03 -7.07875413e-04 -2.79383647e-04 -1.21683464e-03
      -1.67291786e-03 -1.67291786e-03 -2.95226782e-04 -1.33941823e-03
      2.27278401e-03 2.27278401e-03 2.27278401e-03 2.77370657e-03
      3.93939950e-03 -6.68221444e-04 3.89964879e-03 3.42283049e-03
      3.11512011e-03 3.11512011e-03 1.35343836e-03 -7.68312253e-04
      -5.37873013e-04 -5.37873013e-04 -2.30162448e-04 -2.30162448e-04
      -2.30162448e-04 -2.30162448e-04 -2.30162448e-04 -2.30162448e-04
      -2.30162448e-04 -2.30162448e-04 -2.30162448e-04 4.92739317e-04
      -3.81514314e-04 -3.81514314e-04 -6.89224864e-04 -6.89224864e-04
      -1.51015830e-03 -2.77276291e-03 -1.01469120e-03 -5.37873013e-04
      -5.37873013e-04 -2.30162448e-04 -2.30162448e-04 -2.30162448e-04
      -4.99978894e-04 -2.30162448e-04 -2.30162448e-04 -2.30162448e-04
      -2.30162448e-04 -2.30162448e-04 -2.30162448e-04 -4.38058982e-04
      -6.68221444e-04 -6.68221444e-04 -6.68221444e-04 -2.30162448e-04
      -7.07875413e-04 -7.07875413e-04 -7.07875413e-04 -7.07875413e-04
      -7.07875413e-04 0. -1.25615683e-03 -1.62380096e-03 -2.48812983e-04
      -7.57772184e-04 -2.48812983e-04 9.86213781e-05 5.84121794e-04
      6.67112647e-04 -7.07875413e-04 -7.07875413e-04 -1.21683464e-03
      -7.07875413e-04 -7.07875413e-04 -7.07875413e-04 -7.07875413e-04
      -1.21683464e-03 -1.21683464e-03 -1.21683464e-03 -2.35103467e-03
      1.35880616e-03 2.78174318e-03 2.78174318e-03 2.27278401e-03
      3.28266574e-03 3.57871363e-03 1.09753164e-03 3.89964879e-03
      3.42283049e-03 3.11512011e-03 3.11512011e-03 3.11512011e-03
      -1.47294777e-04 -1.30037297e-04 -5.37873013e-04 -2.30162448e-04
      -2.30162448e-04 -2.30162448e-04 0. 0. -2.30162448e-04
      -2.30162448e-04 -2.30162448e-04 -2.30162448e-04 1.85337546e-03
      -1.51351851e-04 -3.81514314e-04 -3.81514314e-04 -6.89224864e-04
      -2.29684403e-03 -2.24955007e-03 -3.07710579e-04 -3.07710579e-04 0.
      0. 0. 0. 0. 0. 0. 0. 0. 0. 0. 0. 0. 0. 0. 0. 0. -2.69816432e-04 0.
      0. 0. 0. -8.18097789e-04 -2.82807770e-04 4.59062430e-04
      4.59062430e-04 4.59062430e-04 6.12550648e-04 -2.05541277e-04
      -7.07875413e-04 -7.07875413e-04 -7.07875413e-04 -7.07875413e-04
      -2.69816432e-04 -4.38058982e-04 -4.38058982e-04 -7.07875413e-04
      -7.07875413e-04 -7.07875413e-04 -7.07875413e-04 -1.68785744e-04
      2.52177101e-03 2.78174318e-03 2.78174318e-03 2.78174318e-03
      3.28266574e-03 3.73546354e-04 -1.38628087e-03 1.47029187e-03
      3.42283049e-03 3.11512011e-03 3.11512011e-03 3.11512011e-03
      1.26174453e-03 3.26647190e-03 1.57885265e-03 1.14469300e-03
      -2.30162448e-04 0. 8.20933376e-04 8.20933376e-04 0. 0. 0. 0.
      2.13641394e-03 3.25466302e-04 3.25466302e-04 -1.51351851e-04
      -4.59062430e-04 -1.27999578e-03 -2.08651717e-03 -3.07710579e-04
      -3.07710579e-04 0. 0. 0. 0. 0. 0. 0. 0. 0. 0. 0. 0. 0. 0. 0. 0. 0.
      0. 0. 0. 0. 0. -5.00922557e-04 -1.97042688e-03 4.59062430e-04
      4.59062430e-04 4.59062430e-04 6.12550648e-04 2.07986101e-03 0. 0.
      0. 1.37498800e-03 1.37498800e-03 0. 0. 0. 0. 1.78113102e-03
      2.60206428e-03 3.90448910e-03 2.79158750e-03 2.78174318e-03
      2.78174318e-03 3.05155967e-03 1.59742869e-03 5.95584752e-05
      -4.17138013e-04 3.25466302e-04 1.96550647e-03 3.34528252e-03
      3.34528252e-03 3.34528252e-03 2.80857761e-03 3.49663431e-03
      4.31756768e-03 3.80434492e-03 1.22876908e-03 1.59112911e-03
      1.59112911e-03 8.20933376e-04 8.20933376e-04 8.20933376e-04
      8.20933376e-04 0. 2.13942563e-04 3.25466302e-04 -1.51351851e-04
      -1.51351851e-04 -4.59062430e-04 -1.27999578e-03 -3.05155967e-03
      -3.07710579e-04 -3.07710579e-04 0. 0. 0. 0. 0. 0. 0. 0. 0. 0. 0.
      0. 0. 0. 0. 0. 0. 0. 0. 0. 0. -5.00922557e-04 -8.18097789e-04
      -1.56259129e-03 4.59062430e-04 4.59062430e-04 4.59062430e-04
      4.59062430e-04 4.06929117e-04 0. 0. 1.37498800e-03 1.37498800e-03
      1.37498800e-03 1.37498800e-03 1.68761925e-03 2.14518374e-03
      3.72373010e-03 4.40554414e-03 3.03055602e-03 2.52963370e-03
      3.22964648e-03 3.48961866e-03 3.48961866e-03 2.66868528e-03
      8.87554197e-04 2.35524590e-06 9.18212099e-05 3.25466302e-04
      1.08620188e-04 1.65779574e-03 3.03265126e-03 3.34528252e-03
      3.74444504e-03 4.31756768e-03 4.31756768e-03 5.99747756e-03
      6.83490094e-03 2.74732383e-03 2.53581628e-03 1.27248454e-03
      1.99838425e-03 1.16096076e-03 9.94445174e-04 0. 1.39380968e-03
      3.25466302e-04 -1.51351851e-04 -1.51351851e-04 -1.51351851e-04
      -4.59062430e-04 -2.33411803e-04 5.13222825e-04 5.13222825e-04
      5.13222825e-04 8.20933376e-04 0. 8.20933376e-04 0. 0. 0. 0. 0. 0.
      0. 0. 0. 0. 0. 0. 0. 0. 3.12631164e-04 1.37498800e-03
      1.68761925e-03 1.18669670e-03 8.74065503e-04 -2.82807770e-04
      4.59062430e-04 4.59062430e-04 4.59062430e-04 6.12550648e-04
      7.82311719e-04 1.37498800e-03 1.37498800e-03 1.68761925e-03
      1.76168163e-03 1.76168163e-03 2.02165358e-03 3.80278472e-03
      4.71817516e-03 4.71817516e-03 4.71817516e-03 4.71817516e-03
      5.59210824e-03 3.41555616e-03 3.48961866e-03 3.31610674e-03
      1.72497763e-03 6.12550648e-04 -8.96768703e-04 -4.15652496e-04
      3.25466302e-04 -1.51351851e-04 -4.59062430e-04 1.24996004e-03
      1.65779574e-03 2.34918366e-03 3.49363638e-03 5.05695958e-03
      5.43179968e-03 4.12981119e-03 4.12981119e-03 3.86983925e-03
      3.25466302e-04 1.77557413e-05 1.77557413e-05 4.73838940e-04
      1.28341862e-03 1.51459081e-03 1.77557413e-05 -4.59062430e-04
      -1.51351851e-04 -1.51351851e-04 -2.10034596e-05 1.01116858e-03
      2.24602735e-03 2.29435391e-03 1.45693042e-03 2.72284565e-03
      3.03055602e-03 2.19313265e-03 1.76464103e-03 1.59112911e-03
      1.59112911e-03 2.96611711e-03 2.19592149e-03 1.37498800e-03
      2.19592149e-03 1.68761925e-03 1.37498800e-03 1.68761925e-03
      1.68761925e-03 1.76168163e-03 1.76168163e-03 1.68761925e-03
      1.68761925e-03 1.76168163e-03 1.76168163e-03 1.41424732e-03
      9.43583844e-04 4.59062430e-04 4.59062430e-04 4.59062430e-04
      4.59062430e-04 9.59984958e-04 1.02218078e-03 1.18669670e-03
      1.44666864e-03 3.78494384e-04 -1.32362882e-03 -5.53433027e-04
      1.27843558e-03 2.05436163e-03 2.52502528e-03 2.52502528e-03
      4.79223765e-03 4.44480358e-03 5.66617073e-03 3.48961866e-03
      1.88199943e-03 8.87554197e-04 4.59062430e-04 9.59984958e-04
      4.78086818e-04 -4.74132248e-04 3.25466302e-04 -1.51351851e-04
      -4.59062430e-04 -4.59062430e-04 9.15925601e-04 2.95858877e-03
      3.50946956e-03 3.82210058e-03 4.12981119e-03 4.12981119e-03
      3.65299312e-03 3.34528252e-03 3.34528252e-03 1.65766326e-03
      -4.59062430e-04 -4.59062430e-04 1.21385534e-03 8.42925976e-04
      1.77557413e-05 -4.59062430e-04 -4.59062430e-04 -4.59062430e-04
      -2.10034596e-05 4.35079739e-04 2.24602735e-03 2.24602735e-03
      2.24602735e-03 3.03547666e-03 4.71817516e-03 4.79223765e-03
      4.79223765e-03 4.79223765e-03 5.05220983e-03 5.05220983e-03
      4.79223765e-03 5.32966992e-03 4.79223765e-03 4.87869792e-03
      4.62262193e-03 4.44911048e-03 4.63911239e-03 4.62527806e-03
      3.80434492e-03 3.25042289e-03 4.62527806e-03 3.80434492e-03
      2.42948951e-03 1.92856684e-03 3.30342236e-03 4.59062430e-04
      4.59062430e-04 4.59062430e-04 4.59062430e-04 6.12550648e-04
      -1.09346630e-03 1.26075908e-03 -9.15793062e-04 4.59062430e-04
      2.88761500e-03 3.48961866e-03 3.48961866e-03 3.48961866e-03
      3.83705297e-03 3.23527097e-03 1.86041556e-03 1.70692732e-03
      1.53341552e-03 1.72497763e-03 4.59062430e-04 4.59062430e-04
      4.59062430e-04 -4.15003044e-04 -1.44669518e-03 -6.47474022e-04
      3.25466302e-04 -1.51351851e-04 -1.51351851e-04 -4.59062430e-04
      -4.59062430e-04 9.15925601e-04 9.89988097e-04 3.50946956e-03
      3.82210058e-03 3.34528252e-03 3.34528252e-03 3.34528252e-03
      3.34528252e-03 3.34528252e-03 3.34528252e-03 -3.84999992e-04
      -4.59062430e-04 1.22842425e-03 9.18181904e-05 -1.46431252e-04
      1.63625996e-03 1.65766326e-03 1.97042688e-03 3.34528252e-03
      4.74838400e-03 4.41554468e-03 5.79040032e-03 6.52719056e-03
      5.15233492e-03 6.83490094e-03 6.83490094e-03 6.83490094e-03
      6.83490094e-03 6.83490094e-03 6.83490094e-03 6.83490094e-03
      6.83490094e-03 6.83490094e-03 6.83490094e-03 6.83490094e-03
      6.83490094e-03 6.83490094e-03 6.83490094e-03 6.83490094e-03
      6.83490094e-03 6.83490094e-03 6.33397838e-03 5.33450535e-03
      4.19226894e-03 3.48961866e-03 3.48961866e-03 2.22370331e-03
      1.45350769e-03 2.29093106e-03 2.81389162e-04 1.16171269e-03
      1.22925814e-03 3.48961866e-03 3.48961866e-03 3.48961866e-03
      3.48961866e-03 3.48961866e-03 3.48961866e-03 3.48961866e-03
      2.66868528e-03 2.82894471e-04 -9.15925601e-04 -9.15925601e-04
      -9.15925601e-04 -9.15925601e-04 -9.15925601e-04 -4.15003044e-04
      -2.84435996e-03 3.94435861e-04 8.78413150e-04 -9.72285226e-04
      -9.72285226e-04 -1.27999578e-03 -1.27999578e-03 -1.27999578e-03
      -4.59062430e-04 9.49922178e-05 2.62481556e-03 3.03265126e-03
      3.34528252e-03 3.34528252e-03 3.34528252e-03 3.34528252e-03
      3.34528252e-03 3.34528252e-03 3.34528252e-03 3.34528252e-03
      3.34528252e-03 3.34528252e-03 3.34528252e-03 3.34528252e-03
      2.52434914e-03 3.34528252e-03 3.78334150e-03 6.05037250e-03
      6.52719056e-03 6.52719056e-03 6.83490094e-03 6.83490094e-03
      6.83490094e-03 6.83490094e-03 6.83490094e-03 6.83490094e-03
      6.83490094e-03 6.83490094e-03 6.83490094e-03 6.83490094e-03
      6.83490094e-03 6.83490094e-03 6.83490094e-03 6.83490094e-03
      6.83490094e-03 6.83490094e-03 6.83490094e-03 6.68141292e-03
      6.33397838e-03 5.01733040e-03 2.11463054e-03 2.11463054e-03
      3.48961866e-03 3.48961866e-03 3.48961866e-03 3.48961866e-03
      3.48961866e-03 3.48961866e-03 3.48961866e-03 3.48961866e-03
      3.48961866e-03 3.48961866e-03 2.11463054e-03 2.11463054e-03
      2.11463054e-03 1.34443480e-03 3.49989568e-04 -9.15925601e-04
      -9.15925601e-04 -9.15925601e-04 -9.15925601e-04 -9.15925601e-04
      -9.15925601e-04 -7.27634237e-04 -2.41087610e-03 1.76942383e-03
      1.76942383e-03 -9.35220392e-04 -8.96586280e-04 -2.22370331e-03
      -2.47868337e-03 -2.47868337e-03 -2.47868337e-03 -2.05019163e-03
      -6.75203570e-04 4.29026724e-04 2.21171789e-03 2.52434914e-03
      2.52434914e-03 3.34528252e-03 3.34528252e-03 3.34528252e-03
      3.34528252e-03 3.34528252e-03 3.34528252e-03 2.52434914e-03
      3.34528252e-03 2.52434914e-03 2.52434914e-03 1.75415329e-03
      3.68046761e-03 4.03075153e-03 4.50756960e-03 6.01396756e-03
      6.83490094e-03 6.06470509e-03 6.06470509e-03 6.83490094e-03
      6.83490094e-03 6.83490094e-03 6.83490094e-03 6.83490094e-03
      6.83490094e-03 6.83490094e-03 5.45991305e-03 5.45991305e-03
      5.14728203e-03 6.83490094e-03 6.83490094e-03 6.83490094e-03
      5.45991305e-03 5.14728203e-03 4.99379355e-03 4.32918407e-03
      1.72793691e-03 1.72793691e-03 1.72793691e-03 2.11463054e-03
      2.11463054e-03 2.11463054e-03 2.11463054e-03 2.11463054e-03
      2.11463054e-03 2.11463054e-03 2.11463054e-03 2.11463054e-03
      1.80199940e-03 1.94111874e-03 3.49989568e-04 -8.00064998e-04
      -9.89988097e-04 -1.22855674e-03 -1.22855674e-03 -1.22855674e-03
      -1.30261923e-03 -1.30261923e-03 -1.14913099e-03 -2.84069625e-04
      -5.37596876e-04 1.76942383e-03 1.76942383e-03 1.29260577e-03
      5.76550490e-04 -2.37390748e-03 -2.78174318e-03 -3.05155967e-03
      -3.05155967e-03 -3.05155967e-03 -2.65219528e-03 -3.48961866e-03
      -1.68114668e-03 8.39518558e-04 1.44152215e-03 3.14726349e-04
      1.32566155e-03 1.32566155e-03 2.09585740e-03 1.75415329e-03
      1.75415329e-03 1.75415329e-03 1.15214975e-03 1.15214975e-03
      3.14726349e-04 2.31194077e-03 2.74999975e-03 3.32752662e-03
      3.80434492e-03 3.80434492e-03 3.80434492e-03 4.81527997e-03
      4.32913704e-03 3.97785660e-03 3.03136045e-03 3.44029209e-03
      2.60286871e-03 2.29023746e-03 3.55615281e-03 4.30302368e-03
      5.07321954e-03 5.14728203e-03 5.07321954e-03 5.07321954e-03
      4.81324736e-03 4.81324736e-03 3.43839196e-03 4.81324736e-03
      5.07321954e-03 3.43839196e-03 1.93862838e-03 1.46796484e-03
      1.46796484e-03 1.72793691e-03 1.80199940e-03 1.80199940e-03
      1.72793691e-03 1.72793691e-03 1.72793691e-03 1.72793691e-03
      1.80199940e-03 1.80199940e-03 9.07003530e-04 -8.74127436e-04
      -8.74127436e-04 -1.56259129e-03 -1.56259129e-03 -1.56259129e-03
      -1.56259129e-03 -1.07245671e-03 -1.07245671e-03 -3.37983598e-04
      1.00459333e-03 -2.16774002e-04 5.17627050e-04 6.27187139e-04
      9.44362371e-04 1.29260577e-03 1.29260577e-03 1.29260577e-03
      -3.02630593e-04 -7.84528733e-04 -1.29348796e-03 -7.84528733e-04
      -1.24061201e-03 -3.05155967e-03 -1.29348796e-03 -1.75941561e-03
      4.40154137e-04 -1.37276028e-03 6.22436928e-04 1.65460887e-03
      6.22436928e-04 1.65460887e-03 6.22436928e-04 6.22436928e-04
      1.65460887e-03 2.02553836e-03 3.05771036e-03 3.01489560e-03
      3.01489560e-03 2.42948951e-03 3.80434492e-03 2.42935680e-03
      7.41870201e-04 6.67807763e-04 2.04266328e-03 6.67807763e-04
      4.81898169e-04 1.78269122e-03 4.07835731e-04 4.07835731e-04
      4.07835731e-04 4.07835731e-04 0. 1.73511842e-04 0. 6.02003594e-04
      4.28491767e-04 4.28491767e-04 9.94445174e-04 8.37423373e-04
      3.03055602e-03 2.26036040e-03 2.26036040e-03 3.81288910e-03
      1.46796484e-03 1.93862838e-03 1.81539927e-03 1.46796484e-03
      1.46796484e-03 1.46796484e-03 1.81539927e-03 1.46796484e-03
      6.47031527e-04 -2.96676095e-04 5.91480348e-04 -1.24541600e-03
      -5.07367309e-04 1.39531912e-04 -3.32955882e-04 -5.70713950e-04
      2.54347513e-04 8.09280842e-04 1.24879275e-03 7.71974563e-04
      9.25462751e-04 5.17627050e-04 5.17627050e-04</_></support_vectors>
  <uncompressed_sv_total>25</uncompressed_sv_total>
  <uncompressed_support_vectors>
    <_>
      0. 0. 0. 0. 0. 0. 0. 0. 0. 1. 0. 0. 1. 1. 0. 0. 1. 0. 0. 1. 1. 1.
      1. 0. 0. 0. 0. 0. 0. 0. 0. 0. 0. 0. 0. 0. 0. 0. 0. 0. 0. 0. 0. 0.
      0. 0. 0. 0. 0. 0. 0. 0. 0. 0. 0. 0. 0. 0. 0. 0. 0. 0. 0. 0. 0. 0.
      0. 0. 0. 0. 0. 0. 0. 0. 0. 0. 0. 1. 1. 1. 1. 1. 1. 1. 1. 1. 1. 1.
      1. 1. 1. 1. 1. 1. 1. 1. 1. 1. 1. 1. 0. 0. 0. 0. 0. 0. 0. 0. 0. 0.
      0. 0. 0. 0. 0. 0. 0. 0. 0. 0. 0. 0. 0. 0. 0. 0. 0. 0. 0. 0. 0. 0.
      0. 0. 0. 0. 0. 0. 0. 0. 0. 0. 0. 0. 0. 0. 0. 0. 0. 0. 0. 1. 1. 1.
      1. 1. 1. 1. 1. 1. 1. 1. 1. 1. 1. 1. 1. 1. 1. 1. 1. 1. 1. 1. 1. 0.
      0. 0. 0. 0. 0. 0. 0. 0. 0. 0. 0. 0. 0. 0. 0. 0. 0. 0. 0. 0. 0. 0.
      0. 0. 0. 0. 0. 0. 0. 0. 0. 0. 0. 0. 0. 0. 0. 0. 0. 0. 0. 0. 0. 0.
      0. 0. 0. 0. 1. 1. 1. 1. 1. 1. 1. 1. 1. 1. 1. 1. 1. 1. 1. 1. 1. 1.
      1. 1. 1. 1. 1. 1. 1. 0. 0. 0. 0. 0. 0. 0. 0. 0. 0. 0. 0. 0. 0. 0.
      0. 0. 0. 0. 0. 0. 0. 0. 0. 0. 0. 0. 0. 0. 0. 0. 0. 0. 0. 0. 0. 0.
      0. 0. 0. 0. 0. 0. 0. 0. 0. 0. 0. 0. 1. 1. 1. 1. 1. 1. 1. 1. 1. 1.
      1. 1. 1. 1. 1. 1. 1. 1. 1. 1. 1. 1. 1. 1. 1. 1. 0. 0. 0. 0. 0. 0.
      0. 0. 0. 0. 0. 0. 0. 0. 0. 0. 0. 0. 0. 0. 0. 0. 0. 0. 0. 0. 0. 0.
      0. 0. 0. 0. 0. 0. 0. 0. 0. 0. 0. 0. 0. 0. 0. 0. 0. 0. 0. 0. 1. 1.
      1. 1. 1. 1. 1. 1. 1. 1. 1. 1. 1. 1. 1. 1. 1. 1. 1. 1. 1. 1. 1. 1.
      1. 1. 0. 0. 0. 0. 0. 0. 0. 0. 0. 0. 0. 0. 0. 0. 0. 0. 0. 0. 0. 0.
      0. 0. 0. 0. 0. 0. 0. 0. 0. 0. 0. 0. 0. 0. 0. 0. 0. 0. 0. 0. 0. 0.
      0. 0. 0. 0. 0. 0. 1. 1. 1. 1. 1. 0. 0. 0. 0. 1. 1. 1. 1. 1. 1. 1.
      1. 0. 1. 1. 1. 1. 1. 1. 0. 0. 0. 0. 0. 0. 0. 0. 0. 0. 0. 0. 0. 0.
      0. 0. 0. 0. 0. 0. 0. 0. 0. 0. 0. 0. 0. 0. 0. 0. 0. 0. 0. 0. 0. 0.
      0. 0. 0. 0. 0. 0. 0. 0. 0. 0. 0. 0. 0. 1. 1. 1. 1. 1. 1. 1. 0. 0.
      0. 0. 0. 0. 0. 0. 0. 0. 0. 0. 0. 1. 1. 1. 1. 0. 0. 0. 0. 0. 0. 0.
      0. 0. 0. 0. 0. 0. 0. 0. 0. 0. 0. 0. 0. 0. 0. 0. 0. 0. 0. 0. 0. 0.
      0. 0. 0. 0. 0. 0. 0. 0. 0. 0. 0. 0. 0. 0. 0. 0. 0. 0. 0. 0. 0. 1.
      1. 1. 1. 1. 1. 1. 0. 0. 0. 0. 0. 0. 0. 0. 0. 0. 0. 0. 1. 1. 1. 1.
      1. 1. 0. 0. 0. 0. 0. 0. 0. 0. 0. 0. 0. 0. 0. 0. 0. 0. 0. 0. 0. 0.
      0. 0. 0. 0. 0. 0. 0. 0. 0. 0. 0. 0. 0. 0. 0. 0. 0. 0. 0. 0. 0. 0.
      0. 0. 0. 0. 0. 0. 0. 0. 1. 1. 1. 1. 1. 0. 0. 0. 0. 0. 0. 0. 0. 0.
      0. 0. 0. 0. 1. 1. 1. 1. 1. 1. 0. 0. 0. 0. 0. 0. 0. 0. 0. 0. 0. 0.
      0. 0. 0. 0. 0. 0. 0. 0. 0. 0. 0. 0. 0. 0. 0. 0. 0. 0. 0. 0. 0. 0.
      0. 0. 0. 0. 0. 0. 0. 0. 0. 0. 0. 0. 0. 0. 0. 0. 1. 1. 1. 1. 1. 0.
      0. 0. 0. 0. 0. 0. 0. 0. 0. 0. 0. 0. 1. 1. 1. 1. 1. 0. 0. 0. 0. 0.
      0. 0. 0. 0. 0. 0. 0. 0. 0. 0. 0. 0. 0. 0. 0. 0. 0. 0. 0. 0. 0. 0.
      0. 0. 0. 0. 0. 0. 0. 0. 0. 0. 0. 0. 0. 0. 0. 0. 0. 0. 0. 0. 0. 0.
      0. 0. 0. 1. 1. 1. 1. 0. 0. 0. 0. 0. 0. 0. 0. 0. 0. 0. 0. 1. 1. 1.
      1. 1. 1. 1. 0. 0. 0. 0. 0. 0. 0. 0. 0. 0. 0. 0. 0. 0. 0. 0. 0. 0.
      0. 0. 0. 0. 0. 0. 0. 0. 0. 0. 0. 0. 0. 0. 0. 0. 0. 0. 0. 0. 0. 0.
      0. 0. 0. 0. 0. 0. 0. 0. 0. 0. 1. 1. 1. 1. 1. 0. 0. 0. 0. 0. 0. 0.
      0. 0. 0. 0. 0. 0. 1. 1. 1. 1. 1. 1. 0. 0. 0. 0. 0. 0. 0. 0. 0. 0.
      0. 0. 0. 0. 0. 0. 0. 0. 0. 0. 0. 0. 0. 0. 0. 0. 0. 0. 0. 0. 0. 0.
      0. 0. 0. 0. 0. 0. 0. 0. 0. 0. 0. 0. 0. 0. 0. 0. 0. 0. 1. 1. 1. 1.
      1. 0. 0. 0. 0. 0. 0. 0. 0. 0. 0. 0. 0. 0. 1. 1. 1. 1. 1. 0. 0. 1.
      1. 0. 0. 0. 0. 0. 0. 0. 0. 0. 0. 0. 0. 0. 0. 0. 0. 0. 0. 0. 0. 0.
      0. 0. 0. 0. 0. 0. 0. 0. 0. 0. 0. 0. 0. 0. 0. 0. 0. 0. 0. 0. 0. 0.
      0. 0. 0. 0. 1. 1. 1. 1. 1. 1. 0. 0. 0. 0. 0. 0. 0. 0. 0. 0. 0. 1.
      1. 1. 1. 1. 1. 1. 1. 1. 1. 0. 0. 1. 1. 1. 1. 1. 0. 1. 1. 1. 1. 0.
      0. 0. 0. 0. 1. 0. 0. 0. 0. 0. 0. 0. 0. 0. 0. 0. 0. 0. 0. 0. 0. 0.
      0. 0. 0. 0. 0. 0. 0. 0. 0. 0. 0. 0. 1. 1. 1. 1. 1. 1. 0. 0. 0. 0.
      0. 0. 0. 0. 0. 0. 0. 0. 1. 1. 1. 1. 1. 1. 1. 1. 1. 1. 1. 1. 1. 1.
      1. 1. 0. 1. 1. 1. 1. 0. 0. 1. 1. 1. 1. 1. 0. 0. 1. 1. 1. 1. 0. 0.
      1. 1. 1. 0. 1. 0. 0. 0. 0. 0. 0. 0. 0. 0. 0. 0. 0. 0. 0. 0. 1. 1.
      1. 1. 1. 0. 0. 0. 0. 0. 0. 0. 0. 0. 0. 0. 0. 1. 1. 1. 1. 1. 1. 1.
      1. 1. 1. 1. 1. 1. 1. 1. 1. 1. 1. 1. 1. 1. 1. 1. 1. 1. 1. 1. 1. 1.
      1. 1. 1. 1. 1. 1. 1. 0. 1. 1. 1. 1. 1. 0. 0. 1. 1. 1. 1. 0. 0. 1.
      1. 1. 1. 0. 0. 0. 1. 1. 1. 1. 1. 1. 0. 0. 0. 0. 0. 0. 0. 0. 0. 0.
      0. 1. 1. 1. 1. 1. 1. 1. 1. 1. 1. 1. 1. 1. 1. 1. 1. 1. 1. 1. 1. 1.
      1. 1. 1. 1. 1. 1. 1. 1. 1. 1. 1. 1. 1. 1. 1. 1. 1. 1. 1. 1. 1. 1.
      1. 1. 1. 1. 1. 1. 1. 1. 1. 1. 1. 0. 0. 0. 1. 1. 1. 1. 1. 1. 0. 0.
      0. 0. 0. 0. 0. 0. 0. 0. 0. 1. 1. 1. 1. 1. 1. 1. 1. 1. 1. 1. 1. 1.
      1. 1. 1. 1. 1. 1. 1. 1. 1. 1. 1. 1. 1. 1. 1. 1. 1. 1. 1. 1. 1. 1.
      1. 1. 1. 1. 1. 1. 1. 1. 1. 1. 1. 1. 1. 1. 1. 1. 1. 1. 1. 0. 0. 0.
      1. 1. 1. 1. 1. 0. 0. 0. 0. 0. 0. 0. 0. 0. 0. 0. 0. 1. 1. 1. 1. 1.
      1. 1. 1. 1. 1. 1. 1. 1. 1. 1. 1. 1. 1. 1. 1. 1. 1. 1. 1. 1. 1. 1.
      1. 1. 1. 1. 1. 1. 1. 1. 1. 1. 1. 1. 1. 1. 1. 1. 1. 1. 1. 1. 1. 1.
      1. 1. 1. 1. 1. 1. 0. 1. 1. 1. 1. 1. 1. 1. 0. 0. 0. 0. 0. 0. 0. 0.
      0. 0. 0. 1. 1. 1. 1. 1. 1. 1. 1. 1. 1. 1. 1. 1. 1. 1. 1. 1. 1. 1.
      1. 1. 1. 1. 1. 1. 1. 1. 1. 1. 1. 1. 1. 1. 1. 1. 1. 1. 1. 1. 1. 1.
      1. 1. 1. 1. 1. 1. 1. 1. 1. 1. 1. 1. 1. 0. 0. 0. 1. 1. 1. 1. 1. 0.
      0. 0. 0. 0. 0. 0. 0. 0. 0. 0. 0. 0. 1. 1. 1. 1. 1. 1. 1. 1. 1. 1.
      1. 1. 1. 1. 1. 1. 1. 1. 1. 1. 1. 1. 1. 1. 1. 1. 1. 1. 1. 1. 1. 1.
      1. 1. 1. 1. 1. 1. 1. 1. 1. 1. 1. 1. 1. 1. 1. 1. 1. 1. 1. 1. 1. 0.
      0. 1. 1. 1. 1. 1. 0. 0. 0. 0. 0. 0. 0. 0. 0. 0. 0. 0. 0. 1. 1. 1.
      1. 1. 1. 1. 1. 1. 1. 0. 0. 1. 1. 1. 1. 0. 1. 1. 1. 1. 1. 0. 0. 1.
      1. 1. 1. 1. 0. 1. 1. 1. 1. 1. 1. 1. 1. 1. 1. 1. 1. 1. 1. 1. 1. 1.
      1. 1. 1. 1. 1. 1. 1. 1. 0. 1. 1. 1. 1. 1. 1. 0. 0. 0. 0. 0. 0. 0.
      0. 0. 0. 0. 0. 1. 1. 1. 1. 1. 1. 0. 0. 0. 0. 0. 0. 1. 0. 0. 0. 0.
      0. 0. 0. 0. 0. 0. 0. 1. 1. 1. 1. 1. 0. 0. 1. 1. 1. 1. 1. 0. 1. 1.
      1. 1. 1. 1. 1. 1. 1. 1. 1. 1. 1. 1. 1. 1. 1. 1. 0. 1. 1. 1. 1. 1.
      1. 0. 0. 0. 0. 0. 0. 0. 0. 0. 0. 0. 0. 1. 1. 1. 1. 1. 1. 0. 0. 0.
      0. 0. 0. 0. 0. 0. 0. 0. 0. 0. 0. 0. 0. 0. 0. 0. 1. 0. 0. 0. 0. 0.
      0. 0. 0. 0. 0. 0. 1. 1. 1. 1. 1. 0. 0. 1. 1. 1. 1. 0. 1. 1. 1. 1.
      1. 1. 0. 1. 1. 1. 1. 1. 1. 0. 0. 0. 0. 0. 0. 0. 0. 0. 0. 0. 0. 1.
      1. 1. 1. 1. 1. 0. 0. 0. 0. 0. 0. 0. 0. 0. 0. 0. 0. 0. 0. 0. 0. 0.
      0. 0. 0. 0. 0. 0. 0. 0. 0. 0. 0. 0. 0. 0. 0. 0. 0. 0. 0. 0. 0. 0.
      0. 0. 0. 0. 0. 1. 1. 0. 0. 0. 1. 1. 1. 1. 1. 1. 0. 0. 0. 0. 0. 0.
      0. 0. 0. 0. 0. 0. 0. 1. 1. 1. 1. 1. 1. 0. 0. 0. 0. 0. 0. 0. 0. 0.
      0. 0. 0. 0. 0. 0. 0. 0. 0. 0. 0. 0. 0. 0. 0. 0. 0. 0. 0. 0. 0. 0.
      0. 0. 0. 0. 0. 0. 0. 0. 0. 0. 0. 0. 0. 0. 0. 0. 0. 0. 1. 1. 1. 1.
      1. 1. 1. 0. 0. 0. 0. 0. 0. 1. 0. 0. 0. 0. 0. 1. 1. 1. 1. 1. 1. 0.
      0. 0. 0. 0. 0. 0. 0. 0. 0. 0. 0. 0. 0. 0. 0. 0. 0. 0. 0. 0. 0. 0.
      0. 0. 0. 0. 0. 0. 0. 0. 0. 0. 0. 0. 0. 0. 0. 0. 0. 0. 0. 0. 0. 0.
      0. 0. 0. 0. 0. 1. 1. 1. 1. 1. 0. 1. 0. 0. 1. 1. 1. 1. 1. 1. 1. 0.
      0. 1. 1. 1. 1. 1. 1. 0. 0. 0. 0. 0. 0. 0. 0. 0. 0. 0. 0. 0. 0. 0.
      0. 0. 0. 0. 0. 0. 0. 0. 0. 0. 0. 0. 0. 0. 0. 0. 0. 0. 0. 0. 0. 0.
      0. 0. 0. 0. 0. 0. 0. 0. 0. 0. 0. 0. 1. 1. 1. 1. 1. 1. 1. 1. 1. 1.
      1. 1. 1. 1. 1. 1. 1. 0. 0. 1. 1. 1. 1. 1. 1. 0. 0. 0. 0. 0. 0. 0.
      0. 0. 0. 0. 0. 0. 0. 0. 0. 0. 0. 0. 0. 0. 0. 0. 0. 0. 0. 0. 0. 0.
      0. 0. 0. 0. 0. 0. 0. 0. 0. 0. 0. 0. 0. 0. 0. 0. 0. 0. 0. 0. 1. 1.
      1. 1. 1. 1. 1. 1. 1. 1. 1. 1. 1. 1. 1. 1. 1. 1. 1. 1. 1. 1. 1. 1.
      1. 1. 0. 0. 0. 0. 0. 0. 0. 0. 0. 0. 0. 0. 0. 0. 0. 0. 0. 0. 0. 0.
      0. 0. 0. 0. 0. 0. 0. 0. 0. 0. 0. 0. 0. 0. 0. 0. 0. 0. 0. 0. 0. 0.
      0. 0. 0. 0. 0. 0. 0. 1. 1. 1. 1. 1. 1. 1. 1. 1. 1. 1. 1. 1. 1. 1.
      1. 1. 1. 1. 1. 1. 1. 1. 1. 1. 0. 0. 0. 0. 0. 0. 0. 0. 0. 0. 0. 0.
      0. 0. 0. 0. 0. 0. 0. 0. 0. 0. 0. 0. 0. 0. 0. 0. 0. 0. 0. 0. 0. 0.
      0. 0. 0. 0. 0. 0. 0. 0. 0. 0. 0. 0. 0. 0. 0. 0. 1. 1. 1. 1. 1. 1.
      1. 1. 1. 1. 1. 1. 1. 1. 1. 1. 1. 1. 1. 1. 1. 1. 1. 1. 0. 0. 0. 0.
      0. 0. 0. 0. 0. 0. 0. 0. 0. 0. 0. 0. 0. 0. 0. 0. 0. 0. 0. 0. 0. 0.
      0. 0. 0. 0. 0. 0. 0. 0. 0. 0. 0. 0. 0. 0. 0. 0. 0. 0. 0. 0. 0. 0.
      0. 0. 0. 0. 0. 0. 1. 1. 1. 1. 1. 1. 1. 1. 1. 1. 1. 1. 1. 1. 1. 1.
      1. 1. 1. 1. 0. 0. 0. 0. 0. 0. 0. 0. 0. 0. 0. 0. 0. 0. 0. 0. 0. 0.
      0. 0. 0. 0. 0. 0. 0. 0. 0. 0. 0. 0. 0. 0. 0. 0. 0. 0. 0. 0. 0. 0.
      0. 0. 0. 0. 0. 0. 0. 0. 0. 0. 0. 0. 0. 0. 0. 0. 0. 0. 1. 0. 1. 1.
      1. 1. 1. 1. 1. 1. 1. 1. 1. 1. 0. 0. 0. 0. 0. 0. 0. 0. 0. 0. 0. 0.
      0. 0. 0. 0. 0. 0. 0. 0. 0. 0. 0. 0. 0. 0. 0. 0. 0. 0. 0. 0. 0. 0.
      0. 0. 0. 0. 0. 0. 0. 0. 0. 0. 0. 0. 0. 0. 0. 0.</_>
    <_>
      0. 0. 0. 0. 0. 0. 0. 0. 0. 0. 0. 0. 0. 1. 1. 1. 1. 1. 1. 1. 1. 1.
      1. 1. 0. 0. 0. 0. 0. 0. 0. 0. 0. 0. 0. 0. 0. 0. 0. 0. 0. 0. 0. 0.
      0. 0. 0. 0. 0. 0. 0. 0. 0. 0. 0. 0. 0. 0. 0. 0. 0. 0. 0. 0. 0. 0.
      0. 0. 0. 0. 0. 0. 0. 0. 0. 0. 0. 0. 0. 0. 0. 0. 0. 0. 1. 1. 1. 1.
      1. 1. 1. 1. 1. 1. 1. 1. 1. 1. 0. 0. 0. 0. 0. 0. 0. 0. 0. 0. 0. 0.
      0. 0. 0. 0. 0. 0. 0. 0. 0. 0. 0. 0. 0. 0. 0. 0. 0. 0. 0. 0. 0. 0.
      0. 0. 0. 0. 0. 0. 0. 0. 0. 0. 0. 0. 0. 0. 0. 0. 0. 0. 0. 0. 0. 0.
      1. 1. 1. 1. 1. 1. 1. 1. 1. 1. 1. 1. 1. 1. 1. 1. 1. 1. 0. 0. 0. 0.
      0. 0. 0. 0. 0. 0. 0. 0. 0. 0. 0. 0. 0. 0. 0. 0. 0. 0. 0. 0. 0. 0.
      0. 0. 0. 0. 0. 0. 0. 0. 0. 0. 0. 0. 0. 0. 0. 0. 0. 0. 0. 0. 0. 0.
      0. 0. 0. 0. 0. 1. 1. 1. 1. 1. 1. 1. 1. 1. 1. 1. 1. 1. 1. 1. 1. 1.
      1. 1. 1. 1. 0. 0. 0. 0. 0. 0. 0. 0. 0. 0. 0. 0. 0. 0. 0. 0. 0. 0.
      0. 0. 0. 0. 0. 0. 0. 0. 0. 0. 0. 0. 0. 0. 0. 0. 0. 0. 0. 0. 0. 0.
      0. 0. 0. 1. 1. 1. 1. 1. 0. 0. 1. 1. 1. 1. 1. 1. 1. 1. 1. 1. 1. 1.
      1. 1. 1. 1. 1. 0. 1. 1. 1. 1. 1. 0. 0. 0. 0. 0. 0. 0. 0. 0. 0. 0.
      0. 0. 0. 0. 0. 0. 0. 0. 0. 0. 0. 0. 0. 0. 0. 0. 0. 0. 0. 0. 0. 0.
      0. 0. 0. 0. 0. 1. 1. 1. 1. 0. 1. 1. 1. 1. 1. 1. 0. 0. 1. 1. 1. 1.
      1. 1. 1. 1. 1. 1. 1. 1. 1. 1. 1. 1. 0. 0. 1. 1. 1. 1. 1. 0. 0. 0.
      0. 0. 0. 0. 0. 0. 0. 0. 0. 0. 0. 0. 0. 0. 0. 0. 0. 0. 0. 0. 0. 0.
      0. 0. 0. 0. 0. 0. 0. 1. 1. 1. 1. 0. 1. 1. 1. 1. 1. 1. 1. 1. 1. 1.
      1. 1. 1. 1. 1. 1. 1. 1. 1. 1. 1. 1. 1. 1. 1. 1. 1. 1. 1. 1. 0. 0.
      1. 1. 1. 1. 1. 0. 0. 0. 0. 0. 0. 0. 0. 0. 0. 0. 0. 0. 0. 0. 0. 0.
      0. 0. 0. 0. 0. 0. 0. 0. 0. 0. 0. 0. 0. 0. 1. 1. 1. 1. 1. 1. 1. 1.
      1. 1. 1. 1. 1. 1. 1. 1. 1. 1. 1. 1. 1. 1. 1. 1. 1. 1. 1. 0. 1. 1.
      1. 1. 0. 0. 0. 0. 0. 0. 1. 1. 1. 1. 1. 1. 0. 0. 0. 0. 0. 0. 0. 0.
      0. 0. 0. 0. 0. 0. 0. 0. 0. 0. 0. 0. 0. 0. 0. 0. 1. 1. 1. 1. 1. 1.
      1. 1. 1. 1. 1. 1. 1. 1. 1. 1. 1. 1. 1. 1. 1. 1. 1. 1. 1. 1. 1. 1.
      1. 1. 1. 1. 0. 0. 0. 0. 0. 0. 0. 0. 0. 0. 0. 0. 1. 1. 1. 1. 1. 1.
      0. 0. 0. 0. 0. 0. 0. 0. 0. 0. 0. 0. 0. 0. 0. 0. 0. 0. 1. 1. 1. 1.
      1. 1. 1. 1. 1. 1. 1. 1. 1. 1. 1. 1. 1. 1. 1. 1. 1. 1. 1. 1. 1. 1.
      1. 1. 1. 1. 1. 1. 1. 1. 1. 1. 1. 1. 0. 0. 0. 0. 0. 0. 0. 0. 0. 0.
      0. 0. 1. 1. 1. 1. 1. 1. 0. 0. 0. 0. 0. 0. 0. 0. 0. 0. 0. 0. 1. 1.
      1. 1. 1. 1. 1. 1. 1. 1. 1. 1. 1. 1. 1. 1. 1. 1. 1. 1. 1. 1. 1. 1.
      1. 1. 1. 1. 1. 1. 1. 1. 1. 1. 1. 1. 1. 0. 1. 1. 1. 1. 1. 1. 0. 0.
      0. 0. 0. 0. 0. 0. 0. 0. 0. 0. 0. 1. 1. 1. 1. 1. 0. 0. 0. 0. 0. 0.
      1. 1. 1. 1. 1. 1. 1. 1. 1. 1. 1. 1. 1. 1. 1. 1. 1. 1. 1. 1. 1. 1.
      1. 1. 1. 1. 1. 1. 1. 1. 1. 1. 1. 1. 1. 1. 1. 1. 1. 1. 1. 1. 1. 0.
      1. 1. 1. 1. 1. 1. 0. 0. 0. 0. 0. 0. 0. 0. 0. 0. 0. 0. 0. 1. 1. 1.
      1. 1. 1. 1. 1. 1. 1. 1. 1. 1. 1. 1. 1. 1. 1. 1. 1. 1. 1. 1. 1. 1.
      1. 1. 1. 1. 1. 1. 1. 1. 1. 1. 1. 1. 1. 1. 1. 1. 1. 1. 1. 1. 1. 1.
      1. 1. 1. 1. 1. 1. 0. 0. 0. 1. 1. 1. 1. 1. 0. 0. 0. 0. 0. 0. 0. 0.
      0. 0. 0. 0. 0. 1. 1. 1. 1. 1. 1. 1. 1. 1. 1. 1. 1. 1. 1. 1. 1. 1.
      1. 1. 1. 1. 1. 1. 1. 1. 1. 1. 1. 1. 1. 1. 1. 1. 1. 1. 1. 1. 1. 1.
      1. 1. 0. 1. 1. 1. 1. 1. 0. 0. 0. 0. 0. 0. 0. 0. 0. 1. 1. 1. 1. 1.
      1. 0. 0. 0. 0. 0. 0. 0. 0. 0. 0. 0. 0. 1. 1. 1. 1. 1. 1. 1. 1. 1.
      1. 1. 1. 1. 1. 1. 1. 1. 1. 1. 1. 1. 1. 1. 1. 1. 1. 1. 1. 1. 1. 1.
      1. 1. 1. 1. 1. 1. 1. 1. 1. 1. 0. 0. 0. 0. 0. 0. 0. 0. 0. 0. 0. 0.
      0. 0. 0. 1. 1. 1. 1. 1. 1. 0. 0. 0. 0. 0. 0. 0. 0. 0. 0. 0. 0. 1.
      1. 1. 1. 1. 1. 1. 1. 1. 1. 1. 1. 1. 1. 1. 1. 1. 1. 1. 1. 1. 1. 1.
      1. 1. 1. 1. 1. 1. 1. 1. 1. 1. 1. 1. 0. 0. 0. 0. 0. 0. 0. 0. 0. 0.
      0. 0. 0. 0. 0. 0. 0. 0. 0. 0. 0. 0. 1. 1. 1. 1. 1. 0. 0. 0. 0. 0.
      0. 0. 0. 0. 0. 0. 0. 1. 1. 1. 1. 1. 1. 1. 1. 1. 1. 1. 1. 1. 1. 1.
      1. 1. 1. 1. 1. 1. 1. 1. 1. 1. 1. 1. 1. 1. 0. 0. 0. 0. 0. 0. 0. 0.
      0. 0. 0. 0. 0. 0. 0. 0. 0. 0. 0. 0. 0. 0. 0. 0. 0. 0. 0. 0. 1. 1.
      1. 1. 1. 0. 0. 0. 0. 0. 0. 0. 0. 0. 0. 0. 0. 1. 1. 1. 1. 1. 1. 1.
      1. 1. 1. 1. 1. 1. 1. 1. 1. 1. 1. 1. 1. 1. 1. 1. 0. 1. 1. 1. 0. 0.
      0. 0. 0. 0. 0. 0. 0. 0. 0. 0. 0. 0. 0. 0. 0. 0. 0. 0. 0. 0. 0. 0.
      0. 0. 0. 0. 0. 0. 1. 1. 1. 1. 1. 0. 0. 0. 0. 0. 0. 0. 0. 0. 0. 0.
      0. 0. 1. 1. 1. 1. 1. 1. 1. 1. 1. 1. 1. 1. 1. 1. 1. 1. 0. 1. 1. 1.
      1. 0. 0. 0. 0. 0. 0. 0. 0. 0. 0. 0. 0. 0. 0. 0. 0. 0. 0. 0. 0. 0.
      0. 0. 0. 0. 0. 0. 0. 0. 0. 0. 0. 0. 0. 0. 1. 1. 1. 1. 1. 1. 0. 0.
      0. 0. 0. 0. 0. 0. 0. 0. 0. 0. 1. 1. 1. 1. 1. 1. 1. 1. 1. 1. 0. 1.
      1. 1. 1. 0. 0. 0. 0. 0. 0. 0. 0. 0. 0. 0. 0. 0. 0. 0. 0. 0. 0. 0.
      0. 0. 0. 0. 0. 0. 0. 0. 0. 0. 0. 0. 0. 0. 0. 0. 0. 0. 0. 0. 0. 0.
      1. 1. 1. 1. 1. 1. 0. 0. 0. 0. 0. 0. 0. 0. 0. 0. 0. 0. 1. 1. 1. 1.
      1. 1. 1. 1. 1. 1. 0. 0. 0. 0. 0. 0. 0. 0. 0. 0. 0. 0. 0. 0. 0. 0.
      0. 0. 0. 0. 0. 0. 0. 0. 0. 0. 0. 0. 0. 0. 0. 0. 0. 0. 0. 0. 0. 0.
      0. 0. 0. 0. 0. 0. 0. 0. 0. 1. 1. 1. 1. 1. 0. 0. 0. 0. 0. 0. 0. 0.
      0. 0. 0. 0. 1. 1. 1. 1. 1. 1. 1. 0. 0. 0. 0. 0. 0. 0. 0. 0. 0. 0.
      0. 0. 0. 0. 0. 0. 0. 0. 0. 0. 0. 0. 0. 0. 0. 0. 0. 0. 0. 0. 0. 0.
      0. 0. 0. 0. 0. 0. 0. 0. 0. 0. 0. 0. 0. 0. 0. 0. 0. 1. 1. 1. 1. 1.
      0. 0. 0. 0. 0. 0. 0. 0. 0. 0. 0. 0. 0. 1. 1. 1. 1. 1. 1. 0. 0. 0.
      0. 0. 0. 0. 0. 0. 0. 0. 0. 0. 0. 0. 0. 0. 0. 0. 0. 0. 0. 0. 0. 0.
      0. 0. 0. 0. 0. 0. 0. 0. 0. 0. 0. 0. 0. 0. 0. 0. 0. 0. 0. 0. 0. 0.
      0. 0. 0. 1. 1. 1. 1. 1. 0. 0. 0. 0. 0. 0. 0. 0. 0. 0. 0. 0. 0. 1.
      1. 1. 1. 1. 0. 0. 0. 0. 0. 0. 0. 0. 0. 0. 0. 0. 0. 0. 0. 0. 0. 0.
      0. 0. 0. 0. 0. 0. 0. 0. 0. 0. 0. 0. 0. 0. 0. 0. 0. 0. 0. 0. 0. 0.
      0. 0. 0. 0. 0. 0. 0. 0. 0. 0. 0. 1. 1. 1. 1. 1. 1. 0. 0. 0. 0. 0.
      0. 0. 0. 0. 0. 0. 0. 1. 1. 1. 1. 1. 1. 1. 0. 0. 0. 0. 0. 0. 0. 0.
      0. 0. 0. 0. 0. 0. 0. 0. 0. 0. 0. 0. 0. 0. 0. 0. 0. 0. 0. 0. 0. 0.
      0. 0. 0. 0. 0. 0. 0. 0. 0. 0. 0. 0. 0. 0. 0. 0. 0. 0. 0. 1. 1. 1.
      1. 1. 1. 0. 0. 0. 0. 0. 0. 0. 0. 0. 0. 0. 0. 0. 1. 1. 1. 1. 1. 0.
      0. 0. 0. 0. 0. 0. 0. 0. 0. 0. 0. 0. 0. 0. 0. 0. 0. 0. 0. 0. 0. 0.
      0. 0. 0. 0. 0. 0. 0. 0. 0. 0. 0. 0. 0. 0. 0. 0. 0. 0. 0. 0. 0. 0.
      0. 0. 0. 0. 0. 1. 1. 1. 1. 1. 1. 0. 0. 0. 0. 0. 0. 0. 0. 0. 0. 0.
      0. 0. 1. 1. 1. 1. 1. 0. 0. 0. 0. 0. 0. 0. 0. 0. 0. 0. 0. 0. 0. 0.
      0. 0. 0. 0. 0. 0. 0. 0. 0. 0. 0. 0. 0. 0. 0. 0. 0. 0. 0. 0. 0. 0.
      0. 0. 0. 0. 0. 0. 0. 0. 0. 0. 0. 0. 0. 1. 1. 1. 1. 1. 1. 0. 0. 0.
      0. 0. 0. 0. 0. 0. 0. 0. 0. 0. 1. 1. 1. 1. 1. 0. 0. 0. 0. 0. 0. 0.
      0. 0. 0. 0. 0. 0. 0. 0. 0. 0. 0. 0. 0. 0. 0. 0. 0. 0. 0. 0. 0. 0.
      0. 0. 0. 0. 0. 0. 0. 0. 0. 0. 0. 0. 0. 0. 0. 0. 0. 0. 0. 0. 0. 1.
      1. 1. 1. 1. 1. 0. 0. 0. 0. 0. 0. 0. 0. 0. 0. 0. 0. 0. 0. 1. 1. 1.
      1. 1. 0. 0. 0. 0. 0. 0. 0. 0. 0. 0. 0. 0. 0. 0. 0. 0. 0. 0. 0. 0.
      0. 0. 0. 0. 0. 0. 0. 0. 0. 0. 0. 0. 0. 0. 0. 0. 0. 0. 0. 0. 0. 0.
      0. 0. 0. 0. 0. 0. 0. 1. 1. 1. 1. 1. 1. 0. 0. 0. 0. 0. 1. 1. 1. 1.
      1. 1. 1. 0. 0. 1. 1. 1. 1. 1. 1. 0. 0. 0. 0. 0. 0. 0. 0. 0. 0. 0.
      0. 0. 0. 0. 0. 0. 0. 0. 0. 0. 0. 0. 0. 0. 0. 0. 0. 0. 0. 0. 0. 0.
      0. 0. 0. 0. 0. 0. 0. 0. 0. 0. 0. 0. 0. 0. 0. 1. 1. 1. 1. 1. 1. 0.
      0. 0. 1. 1. 1. 1. 1. 1. 1. 1. 1. 1. 1. 1. 1. 1. 1. 1. 1. 0. 0. 0.
      0. 0. 0. 0. 0. 0. 0. 0. 0. 0. 0. 0. 0. 0. 0. 0. 0. 0. 0. 0. 0. 0.
      0. 0. 0. 0. 0. 0. 0. 0. 0. 0. 0. 0. 0. 0. 0. 0. 0. 0. 0. 0. 0. 0.
      0. 0. 1. 1. 1. 1. 1. 1. 1. 1. 1. 1. 1. 1. 1. 1. 1. 1. 1. 1. 1. 1.
      1. 1. 1. 1. 1. 1. 0. 0. 0. 0. 0. 0. 0. 0. 0. 0. 0. 0. 0. 0. 0. 0.
      0. 0. 0. 0. 0. 0. 0. 0. 0. 0. 0. 0. 0. 0. 0. 0. 0. 0. 0. 0. 0. 0.
      0. 0. 0. 0. 0. 0. 0. 0. 0. 0. 1. 1. 1. 1. 1. 1. 1. 1. 1. 1. 1. 1.
      1. 1. 1. 1. 1. 1. 1. 1. 1. 1. 1. 1. 1. 0. 0. 0. 0. 0. 0. 0. 0. 0.
      0. 0. 0. 0. 0. 0. 0. 0. 0. 0. 0. 0. 0. 0. 0. 0. 0. 0. 0. 0. 0. 0.
      0. 0. 0. 0. 0. 0. 0. 0. 0. 0. 0. 0. 0. 0. 0. 0. 0. 0. 1. 1. 1. 1.
      1. 1. 1. 1. 1. 1. 1. 1. 1. 1. 1. 1. 1. 1. 1. 1. 1. 1. 1. 1. 0. 0.
      0. 0. 0. 0. 0. 0. 0. 0. 0. 0. 0. 0. 0. 0. 0. 0. 0. 0. 0. 0. 0. 0.
      0. 0. 0. 0. 0. 0. 0. 0. 0. 0. 0. 0. 0. 0. 0. 0. 0. 0. 0. 0. 0. 0.
      0. 0. 0. 0. 1. 1. 1. 1. 1. 1. 1. 1. 1. 1. 1. 1. 1. 1. 1. 1. 1. 1.
      1. 1. 1. 1. 0. 0. 0. 0. 0. 0. 0. 0. 0. 0. 0. 0. 0. 0. 0. 0. 0. 0.
      0. 0. 0. 0. 0. 0. 0. 0. 0. 0. 0. 0. 0. 0. 0. 0. 0. 0. 0. 0. 0. 0.
      0. 0. 0. 0. 0. 0. 0. 0. 0. 0. 0. 0. 0. 1. 1. 1. 1. 1. 1. 1. 1. 1.
      1. 0. 0. 0. 0. 0. 0. 0. 0. 0. 0. 0. 0. 0. 0. 0. 0. 0. 0. 0. 0. 0.
      0. 0. 0. 0. 0. 0. 0. 0. 0. 0. 0. 0. 0. 0. 0. 0. 0. 0. 0. 0. 0. 0.
      0. 0. 0. 0. 0. 0. 0. 0. 0. 0. 0. 0. 0. 0. 0. 0.</_>
    <_>
      0. 0. 0. 0. 0. 0. 0. 0. 0. 0. 0. 0. 0. 0. 0. 0. 0. 0. 0. 0. 0. 0.
      0. 0. 0. 0. 0. 0. 0. 0. 0. 0. 0. 0. 0. 0. 0. 0. 0. 0. 0. 0. 0. 0.
      0. 0. 0. 0. 0. 0. 0. 0. 1. 1. 1. 1. 1. 1. 1. 1. 0. 0. 0. 0. 0. 0.
      0. 0. 0. 0. 0. 0. 0. 0. 0. 0. 0. 0. 0. 0. 0. 0. 0. 0. 0. 0. 0. 0.
      0. 0. 0. 0. 0. 0. 0. 0. 0. 0. 0. 0. 0. 0. 0. 0. 0. 0. 0. 0. 0. 0.
      0. 0. 0. 0. 0. 0. 0. 0. 0. 0. 0. 0. 0. 0. 0. 1. 1. 1. 1. 1. 1. 1.
      1. 1. 1. 1. 1. 1. 0. 0. 1. 0. 0. 0. 0. 0. 0. 0. 0. 0. 0. 0. 0. 0.
      0. 0. 0. 0. 0. 0. 0. 0. 0. 0. 0. 0. 0. 0. 0. 0. 0. 0. 0. 0. 0. 0.
      0. 0. 0. 0. 0. 0. 0. 0. 0. 0. 0. 0. 0. 0. 0. 0. 0. 0. 0. 0. 0. 0.
      1. 1. 1. 1. 1. 1. 1. 1. 1. 1. 1. 1. 1. 1. 1. 1. 1. 1. 1. 1. 1. 1.
      0. 0. 0. 0. 0. 0. 0. 0. 0. 0. 0. 0. 0. 0. 0. 0. 0. 0. 0. 0. 0. 0.
      0. 0. 0. 0. 0. 0. 0. 0. 0. 0. 0. 0. 0. 0. 0. 0. 0. 0. 0. 0. 0. 0.
      0. 0. 0. 0. 0. 0. 0. 1. 1. 1. 1. 1. 1. 1. 1. 1. 1. 1. 1. 1. 1. 1.
      1. 1. 1. 1. 1. 1. 1. 1. 1. 0. 0. 0. 0. 0. 0. 0. 0. 0. 0. 0. 0. 0.
      0. 0. 0. 0. 0. 0. 0. 0. 0. 0. 0. 0. 0. 0. 0. 0. 0. 0. 0. 0. 0. 0.
      0. 0. 0. 0. 0. 0. 0. 0. 0. 0. 0. 0. 0. 0. 0. 0. 1. 1. 1. 1. 1. 1.
      1. 1. 1. 1. 1. 1. 1. 1. 1. 1. 1. 1. 1. 1. 1. 1. 1. 1. 0. 0. 0. 0.
      0. 0. 0. 0. 0. 0. 0. 0. 0. 0. 0. 0. 0. 0. 0. 0. 0. 0. 0. 0. 0. 0.
      0. 0. 0. 0. 0. 0. 0. 0. 0. 0. 0. 0. 0. 0. 0. 0. 0. 0. 0. 0. 0. 0.
      0. 0. 0. 1. 1. 1. 1. 1. 1. 0. 1. 1. 1. 1. 1. 1. 1. 1. 1. 1. 1. 1.
      1. 1. 1. 1. 0. 0. 0. 0. 0. 0. 0. 0. 0. 0. 0. 0. 0. 0. 0. 0. 0. 0.
      0. 0. 0. 0. 0. 0. 0. 0. 0. 0. 0. 0. 0. 0. 0. 0. 0. 0. 0. 0. 0. 0.
      0. 0. 0. 0. 0. 0. 0. 0. 0. 0. 1. 1. 1. 1. 1. 1. 0. 0. 0. 1. 1. 1.
      1. 1. 1. 1. 1. 1. 1. 1. 1. 1. 1. 1. 0. 0. 0. 0. 0. 0. 0. 0. 0. 0.
      0. 0. 0. 0. 0. 0. 0. 0. 0. 0. 0. 0. 0. 0. 0. 0. 0. 0. 0. 0. 0. 0.
      0. 0. 0. 0. 0. 0. 0. 0. 0. 0. 0. 0. 0. 0. 0. 0. 0. 0. 1. 1. 1. 1.
      1. 1. 0. 0. 0. 0. 1. 1. 1. 1. 1. 1. 0. 0. 1. 1. 1. 1. 1. 1. 0. 0.
      0. 0. 0. 1. 1. 1. 1. 0. 0. 0. 1. 0. 0. 0. 0. 0. 0. 0. 0. 0. 0. 0.
      0. 0. 0. 0. 0. 0. 0. 0. 0. 0. 0. 0. 0. 0. 0. 0. 0. 0. 0. 0. 0. 0.
      0. 0. 0. 0. 0. 1. 1. 1. 1. 1. 0. 0. 0. 0. 0. 0. 0. 0. 0. 0. 0. 0.
      1. 1. 1. 1. 1. 1. 0. 0. 0. 1. 1. 1. 1. 1. 1. 1. 0. 1. 1. 1. 1. 0.
      0. 1. 1. 1. 1. 0. 0. 0. 0. 0. 0. 0. 0. 0. 0. 0. 0. 0. 0. 0. 0. 0.
      0. 0. 0. 0. 0. 0. 0. 0. 0. 0. 0. 0. 1. 1. 1. 1. 1. 1. 0. 0. 0. 0.
      0. 0. 0. 0. 0. 0. 0. 0. 1. 1. 1. 1. 1. 1. 0. 0. 1. 1. 1. 1. 1. 1.
      1. 1. 1. 1. 1. 1. 1. 1. 1. 1. 1. 1. 1. 1. 0. 1. 1. 1. 1. 0. 0. 0.
      1. 1. 1. 0. 0. 0. 0. 0. 0. 0. 0. 0. 0. 0. 0. 0. 0. 0. 0. 0. 1. 1.
      1. 1. 1. 1. 0. 0. 0. 0. 0. 0. 0. 0. 0. 0. 0. 0. 1. 1. 1. 1. 1. 1.
      0. 1. 1. 1. 1. 1. 1. 1. 1. 1. 1. 1. 1. 1. 1. 1. 1. 1. 1. 1. 1. 1.
      1. 1. 1. 1. 1. 1. 1. 1. 1. 1. 1. 1. 0. 0. 1. 1. 1. 1. 0. 0. 0. 1.
      0. 0. 0. 0. 0. 0. 1. 1. 1. 1. 1. 1. 0. 0. 0. 0. 0. 0. 0. 0. 0. 0.
      0. 0. 0. 1. 1. 1. 1. 1. 1. 1. 1. 1. 1. 1. 1. 1. 1. 1. 1. 1. 1. 1.
      1. 1. 1. 1. 1. 1. 1. 1. 1. 1. 1. 1. 1. 1. 1. 1. 1. 1. 1. 1. 1. 1.
      1. 1. 1. 1. 1. 0. 1. 1. 1. 0. 0. 0. 1. 1. 1. 1. 1. 1. 1. 0. 0. 0.
      0. 0. 0. 0. 0. 0. 0. 0. 0. 0. 1. 1. 1. 1. 1. 0. 1. 1. 1. 1. 1. 1.
      1. 1. 1. 1. 1. 1. 1. 1. 1. 1. 1. 1. 1. 1. 1. 1. 1. 1. 1. 1. 1. 1.
      1. 1. 1. 1. 1. 1. 1. 1. 1. 1. 1. 1. 0. 1. 1. 1. 1. 1. 0. 1. 1. 1.
      1. 1. 1. 1. 1. 0. 0. 0. 0. 0. 0. 0. 0. 0. 0. 0. 0. 0. 1. 1. 1. 1.
      1. 0. 0. 1. 1. 1. 1. 1. 1. 1. 1. 1. 1. 1. 1. 1. 1. 1. 1. 1. 1. 1.
      1. 1. 1. 1. 1. 1. 1. 1. 1. 1. 1. 1. 1. 1. 1. 1. 1. 1. 1. 1. 1. 1.
      1. 1. 1. 1. 1. 1. 1. 1. 1. 1. 1. 1. 1. 0. 0. 0. 0. 0. 0. 0. 0. 0.
      0. 0. 0. 1. 1. 1. 1. 1. 1. 0. 0. 0. 0. 1. 1. 1. 1. 1. 1. 1. 1. 1.
      1. 1. 1. 1. 1. 1. 1. 1. 1. 1. 1. 1. 1. 1. 1. 1. 1. 1. 1. 1. 1. 1.
      1. 1. 1. 1. 1. 1. 1. 1. 1. 1. 1. 1. 1. 1. 1. 1. 1. 1. 1. 1. 1. 0.
      0. 0. 0. 0. 0. 0. 0. 0. 0. 0. 0. 0. 1. 1. 1. 1. 1. 0. 0. 0. 0. 0.
      1. 1. 1. 1. 0. 0. 1. 1. 1. 1. 1. 1. 1. 1. 1. 1. 1. 1. 1. 1. 1. 1.
      1. 1. 1. 1. 1. 1. 1. 1. 1. 1. 1. 1. 1. 1. 1. 1. 1. 1. 1. 1. 1. 1.
      1. 1. 1. 1. 1. 1. 1. 0. 0. 0. 0. 0. 0. 0. 0. 0. 0. 0. 0. 0. 1. 1.
      1. 1. 1. 0. 0. 0. 0. 0. 0. 1. 1. 1. 0. 0. 1. 1. 1. 1. 1. 0. 1. 1.
      1. 1. 1. 1. 1. 1. 1. 1. 1. 1. 1. 1. 1. 1. 1. 1. 1. 1. 1. 1. 1. 1.
      1. 1. 1. 1. 1. 1. 1. 1. 1. 1. 1. 1. 1. 1. 1. 1. 0. 0. 0. 0. 0. 0.
      0. 0. 0. 0. 0. 1. 1. 1. 1. 1. 1. 0. 0. 0. 0. 0. 0. 0. 0. 0. 0. 0.
      0. 0. 0. 0. 0. 0. 0. 0. 1. 0. 0. 0. 0. 1. 1. 1. 0. 0. 0. 1. 1. 1.
      1. 0. 0. 1. 1. 1. 1. 1. 1. 1. 1. 1. 1. 1. 1. 1. 1. 1. 1. 1. 1. 1.
      1. 0. 0. 0. 0. 0. 0. 0. 0. 0. 0. 0. 0. 0. 1. 1. 1. 1. 1. 0. 0. 0.
      0. 0. 0. 0. 0. 0. 0. 0. 0. 0. 0. 0. 0. 0. 0. 0. 0. 0. 0. 0. 0. 0.
      0. 0. 0. 0. 0. 0. 1. 1. 0. 0. 0. 0. 1. 1. 1. 0. 0. 1. 1. 1. 1. 1.
      1. 1. 1. 1. 1. 1. 1. 1. 1. 0. 0. 0. 0. 0. 0. 0. 0. 0. 0. 0. 0. 1.
      1. 1. 1. 1. 0. 0. 0. 0. 0. 0. 0. 0. 0. 0. 0. 0. 0. 0. 0. 0. 0. 0.
      0. 0. 0. 0. 0. 0. 0. 0. 0. 0. 0. 0. 0. 0. 0. 0. 0. 0. 0. 0. 0. 0.
      0. 0. 0. 0. 1. 1. 1. 0. 0. 0. 1. 1. 1. 1. 1. 1. 1. 0. 0. 0. 0. 0.
      0. 0. 0. 0. 0. 0. 0. 1. 1. 1. 1. 1. 0. 0. 0. 0. 0. 0. 0. 0. 0. 0.
      0. 0. 0. 0. 0. 0. 0. 0. 0. 0. 0. 0. 0. 0. 0. 0. 0. 0. 0. 0. 0. 0.
      0. 0. 0. 0. 0. 0. 0. 0. 0. 0. 0. 0. 0. 0. 0. 0. 0. 0. 0. 1. 1. 1.
      1. 1. 0. 0. 0. 0. 0. 0. 0. 0. 0. 0. 0. 0. 0. 1. 1. 1. 1. 1. 0. 0.
      0. 0. 0. 0. 0. 0. 0. 0. 0. 0. 0. 0. 0. 0. 0. 0. 0. 0. 0. 0. 0. 0.
      0. 0. 0. 0. 0. 0. 0. 0. 0. 0. 0. 0. 0. 0. 0. 0. 0. 0. 0. 0. 0. 0.
      0. 0. 0. 0. 0. 1. 1. 1. 1. 1. 1. 0. 0. 0. 0. 0. 0. 0. 0. 0. 0. 0.
      0. 1. 1. 1. 1. 1. 0. 0. 0. 0. 0. 0. 0. 0. 0. 0. 0. 0. 0. 0. 0. 0.
      0. 0. 0. 0. 0. 0. 0. 0. 0. 0. 0. 0. 0. 0. 0. 0. 0. 0. 0. 0. 0. 0.
      0. 0. 0. 0. 0. 0. 0. 0. 0. 0. 0. 0. 0. 1. 1. 1. 1. 1. 1. 0. 0. 0.
      0. 0. 0. 0. 0. 0. 0. 0. 0. 1. 1. 1. 1. 1. 0. 0. 0. 0. 0. 0. 0. 0.
      0. 0. 0. 0. 0. 0. 0. 0. 0. 0. 0. 0. 0. 0. 0. 0. 0. 0. 0. 0. 0. 0.
      0. 0. 0. 0. 0. 0. 0. 0. 0. 0. 0. 0. 0. 0. 0. 0. 0. 0. 0. 0. 0. 1.
      1. 1. 1. 1. 0. 0. 0. 0. 0. 0. 0. 0. 0. 0. 0. 0. 0. 1. 1. 1. 1. 1.
      0. 0. 0. 0. 0. 0. 0. 0. 0. 0. 0. 0. 0. 0. 0. 0. 0. 0. 0. 0. 0. 0.
      0. 0. 0. 0. 0. 0. 0. 0. 0. 0. 0. 0. 0. 0. 0. 0. 0. 0. 0. 0. 0. 0.
      0. 0. 0. 0. 0. 0. 0. 1. 1. 1. 1. 1. 0. 0. 0. 0. 0. 0. 0. 0. 0. 0.
      0. 0. 0. 1. 1. 1. 1. 1. 0. 0. 0. 0. 0. 0. 0. 0. 0. 0. 0. 0. 0. 0.
      0. 0. 0. 0. 0. 0. 0. 0. 0. 0. 0. 0. 0. 0. 0. 0. 0. 0. 0. 0. 0. 0.
      0. 0. 0. 0. 0. 0. 0. 0. 0. 0. 0. 0. 0. 0. 1. 1. 1. 1. 1. 1. 1. 0.
      0. 0. 0. 0. 0. 0. 0. 0. 0. 0. 0. 1. 1. 1. 1. 1. 1. 0. 0. 0. 0. 0.
      0. 0. 0. 0. 0. 0. 0. 0. 0. 0. 0. 0. 0. 0. 0. 0. 0. 0. 0. 0. 0. 0.
      0. 0. 0. 0. 0. 0. 0. 0. 0. 0. 0. 0. 0. 0. 0. 0. 0. 0. 0. 0. 0. 0.
      1. 1. 1. 1. 1. 1. 0. 0. 0. 0. 0. 0. 0. 0. 0. 0. 0. 0. 0. 1. 1. 1.
      1. 1. 0. 0. 0. 0. 0. 0. 0. 0. 0. 0. 0. 0. 0. 0. 0. 0. 0. 0. 0. 0.
      0. 0. 0. 0. 0. 0. 0. 0. 0. 0. 0. 0. 0. 0. 0. 0. 0. 0. 0. 0. 0. 0.
      0. 0. 0. 0. 0. 0. 0. 0. 0. 1. 1. 1. 1. 1. 0. 0. 1. 1. 1. 1. 1. 1.
      1. 0. 0. 0. 0. 1. 1. 1. 1. 1. 0. 0. 0. 0. 0. 0. 0. 0. 0. 0. 0. 0.
      0. 0. 0. 0. 0. 0. 0. 0. 0. 0. 0. 0. 0. 0. 0. 0. 0. 0. 0. 0. 0. 0.
      0. 0. 0. 0. 0. 0. 0. 0. 0. 0. 0. 0. 0. 0. 0. 0. 1. 1. 1. 1. 1. 1.
      0. 1. 1. 1. 1. 1. 1. 1. 1. 1. 0. 0. 1. 1. 1. 1. 1. 1. 0. 0. 0. 0.
      0. 0. 0. 0. 0. 0. 0. 0. 0. 0. 0. 0. 0. 0. 0. 0. 0. 0. 0. 0. 0. 0.
      0. 0. 0. 0. 0. 0. 0. 0. 0. 0. 0. 0. 0. 0. 0. 0. 0. 0. 0. 0. 0. 0.
      0. 1. 1. 1. 1. 1. 1. 1. 1. 1. 1. 1. 1. 1. 1. 1. 1. 1. 1. 1. 1. 1.
      1. 1. 1. 1. 0. 0. 0. 0. 0. 0. 0. 0. 0. 0. 0. 0. 0. 0. 0. 0. 0. 0.
      0. 0. 0. 0. 0. 0. 0. 0. 0. 0. 0. 0. 0. 0. 0. 0. 0. 0. 0. 0. 0. 0.
      0. 0. 0. 0. 0. 0. 0. 0. 1. 1. 1. 1. 1. 1. 1. 1. 1. 1. 1. 1. 1. 1.
      1. 1. 1. 1. 1. 1. 1. 1. 1. 1. 1. 1. 0. 0. 0. 0. 0. 0. 0. 0. 0. 0.
      0. 0. 0. 0. 0. 0. 0. 0. 0. 0. 0. 0. 0. 0. 0. 0. 0. 0. 0. 0. 0. 0.
      0. 0. 0. 0. 0. 0. 0. 0. 0. 0. 0. 0. 0. 0. 0. 0. 0. 1. 1. 1. 1. 1.
      1. 1. 1. 1. 1. 1. 1. 1. 1. 1. 1. 1. 1. 1. 1. 1. 1. 1. 1. 0. 0. 0.
      0. 0. 0. 0. 0. 0. 0. 0. 0. 0. 0. 0. 0. 0. 0. 0. 0. 0. 0. 0. 0. 0.
      0. 0. 0. 0. 0. 0. 0. 0. 0. 0. 0. 0. 0. 0. 0. 0. 0. 0. 0. 0. 0. 0.
      0. 0. 0. 0. 0. 0. 1. 1. 1. 1. 1. 1. 1. 1. 1. 1. 1. 1. 1. 1. 1. 1.
      1. 1. 1. 1. 1. 1. 0. 0. 0. 0. 0. 0. 0. 0. 0. 0. 0. 0. 0. 0. 0. 0.
      0. 0. 0. 0. 0. 0. 0. 0. 0. 0. 0. 0. 0. 0. 0. 0. 0. 0. 0. 0. 0. 0.
      0. 0. 0. 0. 0. 0. 0. 0. 0. 0. 0. 0. 0. 0. 0. 1. 0. 1. 1. 1. 1. 1.
      1. 1. 1. 1. 1. 1. 1. 1. 1. 1. 1. 1. 1. 0. 0. 0.</_>
    <_>
      1. 1. 1. 0. 0. 0. 0. 0. 0. 0. 0. 0. 0. 0. 0. 0. 0. 0. 0. 0. 0. 0.
      0. 0. 0. 0. 0. 0. 0. 0. 0. 0. 0. 0. 0. 0. 0. 0. 0. 0. 0. 0. 0. 0.
      0. 0. 0. 0. 0. 0. 1. 1. 1. 1. 1. 1. 1. 1. 1. 1. 1. 1. 1. 1. 1. 1.
      1. 1. 1. 1. 1. 0. 0. 0. 1. 1. 0. 0. 0. 0. 0. 0. 0. 0. 0. 0. 0. 0.
      0. 0. 0. 0. 0. 0. 0. 0. 0. 0. 0. 0. 0. 0. 0. 0. 0. 0. 0. 0. 0. 0.
      0. 0. 0. 0. 0. 0. 0. 0. 0. 0. 0. 0. 1. 1. 1. 1. 1. 1. 1. 1. 1. 1.
      1. 1. 1. 1. 1. 1. 1. 1. 1. 1. 1. 1. 1. 1. 0. 0. 0. 0. 0. 0. 0. 0.
      0. 0. 0. 0. 0. 0. 0. 0. 0. 0. 0. 0. 0. 0. 0. 0. 0. 0. 0. 0. 0. 0.
      0. 0. 0. 0. 0. 0. 0. 0. 0. 0. 0. 0. 0. 0. 0. 0. 0. 0. 1. 1. 1. 1.
      1. 1. 1. 1. 1. 1. 1. 1. 1. 1. 1. 1. 1. 1. 1. 1. 1. 1. 1. 1. 1. 1.
      0. 0. 0. 0. 0. 0. 0. 0. 0. 0. 0. 0. 0. 0. 0. 0. 0. 0. 0. 0. 0. 0.
      0. 0. 0. 0. 0. 0. 0. 0. 0. 0. 0. 0. 0. 0. 0. 0. 0. 0. 0. 0. 0. 0.
      0. 0. 0. 0. 1. 1. 1. 1. 1. 1. 1. 1. 1. 1. 1. 1. 1. 1. 1. 1. 1. 1.
      1. 1. 1. 1. 1. 1. 1. 1. 0. 0. 0. 0. 0. 0. 0. 0. 0. 0. 0. 0. 0. 0.
      0. 0. 0. 0. 0. 0. 0. 0. 0. 0. 0. 0. 0. 0. 0. 0. 0. 0. 0. 0. 0. 0.
      0. 0. 0. 0. 0. 0. 0. 0. 0. 0. 0. 0. 1. 1. 1. 1. 1. 1. 1. 1. 0. 1.
      1. 1. 1. 1. 1. 1. 1. 1. 1. 1. 1. 1. 1. 1. 1. 1. 0. 0. 0. 0. 0. 0.
      0. 0. 0. 0. 0. 0. 0. 0. 0. 0. 0. 0. 0. 0. 0. 0. 0. 0. 0. 0. 0. 0.
      0. 0. 0. 0. 0. 0. 0. 0. 0. 0. 0. 0. 0. 0. 0. 0. 0. 0. 0. 0. 0. 1.
      1. 1. 1. 1. 1. 1. 0. 1. 1. 1. 1. 1. 1. 1. 1. 1. 0. 0. 0. 1. 1. 1.
      1. 1. 0. 0. 0. 0. 0. 0. 0. 0. 0. 0. 0. 0. 0. 0. 0. 0. 0. 0. 0. 0.
      0. 0. 0. 0. 0. 0. 0. 0. 0. 0. 0. 0. 0. 0. 0. 0. 0. 0. 0. 0. 0. 0.
      0. 0. 0. 0. 0. 0. 0. 0. 1. 1. 1. 1. 1. 1. 0. 0. 0. 0. 0. 0. 0. 0.
      0. 0. 0. 0. 0. 1. 1. 1. 1. 1. 0. 0. 0. 0. 0. 0. 0. 0. 0. 0. 0. 0.
      0. 0. 0. 0. 0. 0. 0. 0. 0. 0. 0. 0. 0. 0. 0. 0. 0. 0. 0. 0. 0. 0.
      0. 0. 0. 0. 0. 0. 0. 0. 0. 0. 0. 0. 0. 0. 0. 0. 0. 1. 1. 1. 1. 1.
      0. 0. 0. 0. 0. 0. 0. 0. 0. 0. 0. 0. 0. 1. 1. 1. 1. 1. 0. 0. 0. 0.
      0. 0. 0. 0. 0. 0. 0. 0. 0. 0. 0. 0. 0. 0. 0. 0. 0. 0. 0. 0. 0. 0.
      0. 0. 0. 0. 0. 0. 0. 0. 0. 0. 0. 0. 0. 0. 0. 0. 0. 0. 0. 0. 0. 0.
      0. 0. 0. 1. 1. 1. 1. 1. 0. 0. 0. 0. 0. 0. 0. 0. 0. 0. 0. 0. 0. 1.
      1. 1. 1. 1. 0. 0. 0. 0. 0. 0. 0. 0. 0. 0. 0. 0. 0. 0. 0. 0. 0. 0.
      0. 0. 0. 0. 0. 0. 0. 0. 0. 0. 0. 0. 0. 0. 0. 0. 0. 0. 0. 0. 0. 0.
      0. 0. 0. 0. 0. 0. 0. 0. 0. 0. 0. 1. 1. 1. 1. 1. 0. 0. 0. 0. 0. 0.
      0. 0. 0. 0. 0. 0. 0. 1. 1. 1. 1. 1. 0. 0. 0. 0. 0. 0. 0. 0. 0. 0.
      0. 0. 0. 0. 0. 0. 0. 0. 0. 0. 0. 0. 0. 0. 0. 0. 0. 0. 0. 0. 0. 0.
      0. 0. 0. 0. 0. 0. 0. 0. 0. 0. 0. 0. 0. 0. 0. 0. 0. 0. 0. 1. 1. 1.
      1. 1. 0. 0. 0. 0. 0. 0. 0. 0. 0. 0. 0. 0. 0. 1. 1. 1. 1. 1. 0. 0.
      0. 0. 0. 0. 0. 0. 0. 0. 0. 0. 0. 0. 0. 0. 0. 0. 0. 0. 0. 0. 0. 0.
      0. 0. 0. 0. 0. 0. 0. 0. 0. 0. 0. 0. 0. 0. 0. 0. 0. 0. 0. 0. 0. 0.
      0. 0. 0. 0. 0. 1. 1. 1. 1. 1. 0. 0. 0. 0. 0. 0. 0. 0. 0. 0. 0. 0.
      0. 1. 1. 1. 1. 1. 0. 0. 0. 0. 0. 0. 0. 0. 0. 0. 0. 0. 0. 0. 0. 0.
      0. 0. 0. 0. 0. 0. 0. 0. 0. 0. 0. 0. 0. 0. 0. 0. 0. 0. 0. 0. 0. 0.
      0. 0. 0. 0. 0. 0. 0. 0. 0. 0. 0. 0. 0. 1. 1. 1. 1. 1. 0. 0. 0. 0.
      0. 0. 0. 0. 0. 0. 0. 0. 0. 1. 1. 1. 1. 1. 0. 0. 0. 0. 0. 0. 0. 0.
      0. 0. 0. 0. 0. 0. 0. 0. 0. 0. 0. 0. 0. 0. 0. 0. 0. 0. 0. 0. 0. 0.
      0. 0. 0. 0. 0. 0. 0. 0. 0. 0. 0. 0. 0. 0. 0. 0. 0. 0. 0. 0. 0. 1.
      1. 1. 1. 1. 0. 0. 0. 0. 0. 0. 0. 0. 0. 0. 0. 0. 0. 1. 1. 1. 1. 1.
      0. 0. 0. 0. 0. 0. 0. 0. 0. 0. 0. 0. 0. 0. 0. 0. 0. 0. 0. 0. 0. 0.
      0. 0. 0. 0. 0. 0. 0. 0. 0. 0. 0. 0. 0. 0. 0. 0. 0. 0. 0. 0. 0. 0.
      0. 0. 0. 1. 1. 1. 1. 1. 1. 1. 1. 1. 1. 0. 0. 0. 0. 0. 0. 0. 0. 0.
      0. 0. 0. 1. 1. 1. 1. 1. 0. 0. 0. 0. 0. 0. 0. 0. 0. 0. 0. 0. 0. 0.
      0. 0. 0. 0. 0. 0. 0. 0. 0. 0. 0. 0. 0. 0. 0. 0. 0. 0. 0. 0. 1. 1.
      1. 1. 1. 0. 1. 1. 1. 1. 1. 1. 1. 1. 1. 1. 1. 1. 1. 1. 1. 1. 1. 0.
      0. 0. 0. 0. 0. 0. 0. 0. 0. 0. 0. 1. 1. 1. 1. 1. 0. 0. 0. 0. 0. 0.
      0. 0. 0. 0. 0. 0. 0. 0. 0. 0. 0. 0. 0. 0. 0. 1. 1. 1. 1. 1. 1. 1.
      1. 1. 1. 1. 1. 1. 1. 1. 1. 1. 1. 1. 1. 1. 1. 1. 1. 1. 1. 1. 1. 1.
      1. 1. 1. 1. 1. 1. 1. 0. 0. 0. 0. 0. 0. 0. 0. 0. 0. 0. 0. 1. 1. 1.
      1. 1. 0. 0. 0. 0. 0. 0. 0. 0. 1. 1. 1. 1. 1. 1. 1. 1. 1. 1. 1. 1.
      1. 1. 1. 1. 1. 1. 1. 1. 1. 1. 1. 1. 1. 1. 1. 1. 1. 1. 1. 1. 1. 1.
      1. 1. 1. 1. 1. 1. 1. 1. 1. 1. 1. 1. 1. 1. 1. 0. 0. 0. 0. 0. 0. 0.
      0. 0. 0. 0. 0. 1. 1. 1. 1. 1. 0. 0. 1. 1. 1. 1. 1. 1. 1. 1. 1. 1.
      1. 1. 1. 1. 1. 1. 1. 1. 1. 1. 1. 1. 1. 1. 1. 1. 1. 1. 1. 1. 1. 1.
      1. 1. 1. 1. 1. 1. 1. 1. 1. 1. 1. 1. 1. 1. 1. 1. 1. 1. 1. 1. 1. 1.
      1. 0. 0. 0. 0. 0. 0. 0. 0. 0. 0. 0. 0. 1. 1. 1. 1. 1. 0. 0. 1. 1.
      1. 1. 1. 1. 1. 1. 1. 1. 1. 1. 1. 1. 1. 1. 1. 1. 1. 1. 1. 1. 1. 1.
      1. 1. 1. 1. 1. 1. 1. 1. 1. 1. 1. 1. 1. 1. 1. 1. 1. 1. 1. 1. 1. 1.
      1. 1. 1. 1. 1. 1. 1. 1. 1. 0. 0. 0. 0. 0. 0. 0. 0. 0. 0. 0. 0. 1.
      1. 1. 1. 1. 0. 0. 1. 1. 1. 1. 1. 1. 1. 1. 1. 1. 1. 1. 1. 1. 1. 1.
      1. 1. 1. 1. 1. 1. 1. 1. 1. 1. 1. 1. 1. 1. 1. 1. 1. 1. 1. 1. 1. 1.
      1. 1. 1. 1. 1. 1. 1. 1. 1. 1. 1. 1. 1. 1. 1. 1. 1. 0. 0. 0. 0. 0.
      0. 0. 0. 0. 0. 0. 0. 1. 1. 1. 1. 1. 1. 0. 1. 1. 1. 1. 1. 1. 1. 1.
      1. 1. 1. 1. 1. 1. 1. 1. 1. 1. 1. 1. 1. 1. 1. 1. 1. 1. 1. 1. 1. 1.
      1. 1. 1. 1. 1. 1. 1. 1. 1. 1. 1. 1. 1. 1. 1. 1. 1. 1. 1. 1. 1. 1.
      1. 1. 1. 0. 0. 0. 0. 0. 0. 0. 0. 0. 0. 0. 0. 1. 1. 1. 1. 1. 1. 0.
      0. 1. 1. 1. 1. 1. 1. 1. 1. 1. 1. 1. 1. 1. 1. 1. 1. 1. 1. 1. 1. 1.
      1. 1. 1. 1. 1. 1. 1. 1. 1. 1. 1. 1. 1. 1. 1. 1. 1. 1. 1. 1. 1. 1.
      0. 0. 1. 1. 1. 1. 1. 1. 1. 1. 1. 0. 0. 0. 0. 0. 0. 0. 0. 0. 0. 0.
      0. 0. 1. 1. 1. 1. 1. 0. 1. 1. 1. 1. 1. 1. 1. 1. 1. 1. 1. 1. 1. 1.
      1. 1. 1. 1. 1. 1. 1. 1. 1. 1. 1. 1. 1. 1. 1. 1. 1. 1. 1. 1. 1. 1.
      1. 1. 0. 1. 1. 1. 1. 0. 0. 0. 0. 0. 0. 0. 1. 1. 1. 1. 1. 0. 0. 0.
      0. 0. 0. 0. 0. 0. 0. 0. 0. 0. 1. 1. 1. 1. 1. 0. 1. 1. 1. 1. 1. 1.
      1. 1. 1. 1. 1. 1. 0. 0. 1. 1. 1. 1. 1. 0. 1. 1. 1. 1. 1. 0. 0. 0.
      0. 0. 0. 0. 0. 0. 0. 0. 0. 0. 0. 0. 0. 0. 0. 0. 0. 0. 0. 0. 0. 0.
      1. 1. 1. 1. 1. 0. 0. 0. 0. 0. 0. 0. 0. 0. 0. 0. 0. 0. 1. 1. 1. 1.
      1. 1. 1. 1. 1. 1. 1. 1. 0. 1. 1. 1. 1. 0. 0. 0. 0. 0. 0. 0. 0. 0.
      0. 0. 0. 0. 0. 0. 0. 0. 0. 0. 0. 0. 0. 0. 0. 0. 0. 0. 0. 0. 0. 0.
      0. 0. 0. 0. 0. 0. 0. 0. 1. 1. 1. 1. 1. 0. 0. 0. 0. 0. 0. 0. 0. 0.
      0. 0. 0. 0. 1. 1. 1. 1. 1. 1. 0. 0. 0. 0. 0. 0. 0. 0. 0. 0. 0. 0.
      0. 0. 0. 0. 0. 0. 0. 0. 0. 0. 0. 0. 0. 0. 0. 0. 0. 0. 0. 0. 0. 0.
      0. 0. 0. 0. 0. 0. 0. 0. 0. 0. 0. 0. 0. 0. 0. 0. 1. 1. 1. 1. 1. 0.
      0. 0. 0. 0. 0. 0. 0. 0. 0. 0. 0. 0. 1. 1. 1. 1. 1. 1. 0. 0. 0. 0.
      0. 0. 0. 0. 0. 0. 0. 0. 0. 0. 0. 0. 0. 0. 0. 0. 0. 0. 0. 0. 0. 0.
      0. 0. 0. 0. 0. 0. 0. 0. 0. 0. 0. 0. 0. 0. 0. 0. 0. 0. 0. 0. 0. 0.
      0. 0. 1. 1. 1. 1. 1. 0. 0. 0. 0. 0. 0. 0. 0. 0. 0. 0. 0. 0. 1. 1.
      1. 1. 1. 1. 0. 0. 0. 0. 0. 0. 0. 0. 0. 0. 0. 0. 0. 0. 0. 0. 0. 0.
      0. 0. 0. 0. 0. 0. 0. 0. 0. 0. 0. 0. 0. 0. 0. 0. 0. 0. 0. 0. 0. 0.
      0. 0. 0. 0. 0. 0. 0. 0. 0. 0. 1. 1. 1. 1. 1. 0. 0. 0. 0. 1. 1. 1.
      1. 1. 1. 0. 0. 0. 1. 1. 1. 1. 1. 1. 0. 0. 0. 0. 0. 0. 0. 0. 0. 0.
      0. 0. 0. 0. 0. 0. 0. 0. 0. 0. 0. 0. 0. 0. 0. 0. 0. 0. 0. 0. 0. 0.
      0. 0. 0. 0. 0. 0. 0. 0. 0. 0. 0. 0. 0. 0. 0. 0. 0. 0. 1. 1. 1. 1.
      1. 0. 0. 1. 1. 1. 1. 1. 1. 1. 1. 1. 1. 1. 1. 1. 1. 1. 1. 1. 0. 0.
      0. 0. 0. 0. 0. 0. 0. 0. 0. 0. 0. 0. 0. 0. 0. 0. 0. 0. 0. 0. 0. 0.
      0. 0. 0. 0. 0. 0. 0. 0. 0. 0. 0. 0. 0. 0. 0. 0. 0. 0. 0. 0. 0. 0.
      0. 0. 0. 0. 1. 1. 1. 1. 1. 0. 0. 1. 1. 1. 1. 1. 1. 1. 1. 1. 1. 1.
      1. 1. 1. 1. 1. 1. 0. 0. 0. 0. 0. 0. 0. 0. 0. 0. 0. 0. 0. 0. 0. 0.
      0. 0. 0. 0. 0. 0. 0. 0. 0. 0. 0. 0. 0. 0. 0. 0. 0. 0. 0. 0. 0. 0.
      0. 0. 0. 0. 0. 0. 0. 0. 0. 0. 0. 1. 1. 1. 1. 1. 1. 1. 1. 1. 1. 1.
      1. 1. 1. 1. 1. 1. 1. 1. 1. 1. 1. 1. 1. 1. 0. 0. 0. 0. 0. 0. 0. 0.
      0. 0. 0. 0. 0. 0. 0. 0. 0. 0. 0. 0. 0. 0. 0. 0. 0. 0. 0. 0. 0. 0.
      0. 0. 0. 0. 0. 0. 0. 0. 0. 0. 0. 0. 0. 0. 0. 0. 0. 0. 0. 1. 1. 1.
      1. 1. 1. 1. 1. 1. 1. 1. 1. 1. 1. 1. 1. 1. 1. 1. 1. 1. 1. 1. 1. 1.
      0. 0. 0. 0. 0. 0. 0. 0. 0. 0. 0. 0. 0. 0. 0. 0. 0. 0. 0. 0. 0. 0.
      0. 0. 0. 0. 0. 0. 0. 0. 0. 0. 0. 0. 0. 0. 0. 0. 0. 0. 0. 0. 0. 0.
      0. 0. 0. 0. 0. 1. 1. 1. 1. 1. 1. 1. 1. 1. 1. 1. 1. 1. 1. 1. 1. 1.
      1. 1. 0. 0. 0. 0. 0. 0. 0. 0. 0. 0. 0. 0. 0. 0. 0. 0. 0. 0. 0. 0.
      0. 0. 0. 0. 0. 0. 0. 0. 0. 0. 0. 0. 0. 0. 0. 0. 0. 0. 0. 0. 0. 0.
      0. 0. 0. 0. 0. 0. 0. 0. 0. 0. 0. 0. 0. 0. 1. 1. 1. 1. 1. 1. 1. 1.
      1. 1. 1. 1. 1. 0. 0. 0. 0. 0. 0. 0. 0. 0. 0. 0.</_>
    <_>
      0. 0. 0. 0. 0. 0. 0. 0. 0. 0. 0. 0. 1. 0. 0. 1. 1. 1. 1. 1. 1. 0.
      0. 0. 0. 0. 0. 0. 0. 0. 0. 0. 0. 0. 0. 0. 0. 0. 0. 0. 0. 0. 0. 0.
      0. 0. 0. 0. 0. 0. 0. 0. 0. 0. 0. 0. 0. 0. 0. 0. 0. 0. 0. 0. 0. 0.
      0. 0. 0. 0. 0. 0. 0. 0. 0. 0. 0. 1. 1. 0. 1. 1. 1. 1. 1. 1. 1. 1.
      1. 1. 1. 1. 1. 1. 1. 1. 1. 1. 1. 0. 0. 0. 0. 0. 0. 0. 0. 0. 0. 0.
      0. 0. 0. 0. 0. 0. 0. 0. 0. 0. 0. 0. 0. 0. 0. 0. 0. 0. 0. 0. 0. 0.
      0. 0. 0. 0. 0. 0. 0. 0. 0. 0. 0. 0. 0. 0. 0. 0. 0. 1. 1. 1. 1. 1.
      1. 1. 1. 1. 1. 1. 1. 1. 1. 1. 1. 1. 1. 1. 1. 1. 1. 1. 1. 0. 0. 0.
      0. 0. 0. 0. 0. 0. 0. 0. 0. 0. 0. 0. 0. 0. 0. 0. 0. 0. 0. 0. 0. 0.
      0. 0. 0. 0. 0. 0. 0. 0. 0. 0. 0. 0. 0. 0. 0. 0. 0. 0. 0. 0. 0. 0.
      0. 0. 0. 1. 1. 1. 1. 1. 1. 1. 1. 1. 1. 1. 1. 1. 1. 1. 1. 1. 1. 1.
      1. 1. 1. 1. 1. 1. 0. 0. 0. 0. 0. 0. 0. 0. 0. 0. 0. 0. 0. 0. 0. 0.
      0. 0. 0. 0. 0. 0. 0. 0. 0. 0. 0. 0. 0. 0. 0. 0. 0. 0. 0. 0. 0. 0.
      0. 0. 0. 0. 0. 0. 0. 0. 0. 0. 0. 1. 1. 1. 1. 1. 1. 1. 1. 1. 1. 1.
      1. 1. 1. 1. 1. 1. 1. 1. 1. 1. 1. 1. 1. 1. 1. 0. 0. 0. 0. 0. 0. 0.
      0. 0. 0. 0. 0. 0. 0. 0. 0. 0. 0. 0. 0. 0. 0. 0. 0. 0. 0. 0. 0. 0.
      0. 0. 0. 0. 0. 0. 0. 0. 0. 0. 0. 0. 0. 0. 0. 0. 0. 0. 1. 1. 1. 1.
      1. 1. 1. 1. 1. 1. 1. 1. 1. 1. 1. 1. 1. 1. 0. 1. 1. 1. 1. 1. 1. 0.
      0. 0. 0. 0. 0. 0. 0. 0. 0. 0. 0. 0. 0. 0. 0. 0. 0. 0. 0. 0. 0. 0.
      0. 0. 0. 0. 0. 0. 0. 0. 0. 0. 0. 0. 0. 0. 0. 0. 0. 0. 0. 0. 0. 0.
      0. 0. 0. 0. 0. 1. 1. 1. 1. 1. 1. 0. 1. 1. 1. 1. 1. 1. 1. 1. 1. 1.
      0. 1. 1. 1. 1. 1. 1. 0. 0. 0. 0. 0. 0. 0. 0. 0. 0. 0. 0. 0. 0. 0.
      0. 0. 0. 0. 0. 0. 0. 0. 0. 0. 0. 0. 0. 0. 0. 0. 0. 0. 0. 0. 0. 0.
      0. 0. 0. 0. 0. 0. 0. 0. 0. 0. 0. 0. 0. 1. 1. 1. 1. 1. 0. 0. 0. 0.
      0. 0. 1. 1. 0. 0. 0. 0. 0. 1. 1. 1. 1. 1. 1. 0. 0. 0. 0. 0. 0. 0.
      0. 0. 0. 0. 0. 0. 0. 0. 0. 0. 0. 0. 0. 0. 0. 0. 0. 0. 0. 0. 0. 0.
      0. 0. 0. 0. 0. 0. 0. 0. 0. 0. 0. 0. 0. 0. 0. 0. 0. 0. 0. 0. 0. 1.
      1. 1. 1. 1. 1. 0. 0. 0. 0. 0. 0. 0. 0. 0. 0. 0. 0. 1. 1. 1. 1. 1.
      1. 0. 0. 0. 0. 0. 0. 0. 0. 0. 0. 0. 0. 0. 0. 0. 0. 0. 0. 0. 0. 0.
      0. 0. 0. 0. 0. 0. 0. 0. 0. 0. 0. 0. 0. 0. 0. 0. 0. 0. 0. 0. 0. 0.
      0. 0. 0. 0. 0. 0. 1. 1. 1. 1. 1. 1. 0. 0. 0. 0. 0. 0. 0. 0. 0. 0.
      0. 0. 0. 1. 1. 1. 1. 1. 0. 0. 0. 0. 0. 0. 0. 0. 0. 0. 0. 0. 0. 0.
      0. 0. 0. 0. 0. 0. 0. 0. 0. 0. 0. 0. 0. 0. 0. 0. 0. 0. 0. 0. 0. 0.
      0. 0. 0. 0. 0. 0. 0. 0. 0. 0. 0. 0. 0. 0. 0. 1. 1. 1. 1. 1. 1. 0.
      0. 0. 0. 0. 0. 0. 0. 0. 0. 0. 0. 1. 1. 1. 1. 1. 1. 0. 0. 0. 0. 0.
      0. 0. 0. 0. 0. 0. 0. 0. 0. 0. 0. 0. 0. 0. 0. 0. 0. 0. 0. 0. 0. 0.
      0. 0. 0. 0. 0. 0. 0. 0. 0. 0. 0. 0. 0. 0. 0. 0. 0. 0. 0. 0. 0. 0.
      0. 1. 1. 1. 1. 1. 0. 0. 0. 0. 0. 0. 0. 0. 0. 0. 0. 0. 0. 1. 1. 1.
      1. 1. 0. 0. 0. 0. 0. 0. 0. 0. 0. 0. 0. 0. 0. 0. 0. 0. 0. 0. 0. 0.
      0. 0. 0. 0. 0. 0. 0. 0. 0. 0. 0. 0. 0. 0. 0. 0. 0. 0. 0. 0. 0. 0.
      0. 0. 0. 0. 0. 0. 0. 0. 0. 0. 1. 1. 1. 1. 1. 0. 0. 0. 0. 0. 0. 0.
      0. 0. 0. 0. 0. 1. 1. 1. 1. 1. 1. 0. 0. 0. 0. 0. 0. 0. 0. 0. 0. 0.
      0. 0. 0. 0. 0. 0. 0. 0. 0. 0. 0. 0. 0. 0. 0. 0. 0. 0. 0. 0. 0. 0.
      0. 0. 0. 0. 0. 0. 0. 0. 0. 0. 0. 0. 0. 0. 0. 0. 0. 1. 1. 1. 1. 1.
      0. 0. 0. 0. 0. 0. 0. 0. 0. 0. 0. 0. 0. 1. 1. 1. 1. 1. 1. 0. 0. 1.
      1. 1. 1. 0. 0. 0. 1. 1. 0. 0. 0. 0. 0. 1. 0. 0. 0. 0. 0. 0. 0. 0.
      0. 0. 0. 0. 0. 0. 0. 0. 0. 0. 1. 0. 0. 0. 0. 0. 0. 0. 0. 0. 0. 0.
      0. 0. 0. 1. 1. 1. 1. 1. 1. 0. 0. 0. 0. 0. 0. 0. 0. 0. 0. 0. 0. 1.
      1. 1. 1. 1. 1. 1. 1. 1. 1. 1. 1. 0. 1. 1. 1. 1. 1. 0. 0. 1. 1. 1.
      1. 0. 0. 0. 1. 1. 1. 0. 0. 1. 1. 1. 1. 1. 0. 0. 1. 1. 1. 1. 0. 0.
      0. 1. 1. 1. 0. 0. 0. 0. 0. 0. 0. 0. 1. 1. 1. 1. 1. 0. 0. 0. 0. 0.
      0. 0. 0. 0. 0. 0. 1. 1. 1. 1. 1. 1. 1. 1. 1. 1. 1. 1. 1. 1. 1. 1.
      1. 1. 1. 1. 1. 1. 1. 1. 1. 1. 1. 1. 1. 1. 1. 1. 1. 1. 1. 1. 1. 1.
      1. 1. 1. 1. 1. 1. 1. 1. 1. 1. 1. 1. 0. 0. 1. 1. 1. 0. 0. 1. 1. 1.
      1. 1. 1. 0. 0. 0. 0. 0. 0. 0. 0. 0. 0. 0. 0. 1. 1. 1. 1. 1. 1. 1.
      1. 1. 1. 1. 1. 1. 1. 1. 1. 1. 1. 1. 1. 1. 1. 1. 1. 1. 1. 1. 1. 1.
      1. 1. 1. 1. 1. 1. 1. 1. 1. 1. 1. 1. 1. 1. 1. 1. 1. 1. 1. 1. 1. 1.
      1. 1. 1. 0. 0. 0. 1. 1. 1. 1. 1. 0. 0. 0. 0. 0. 0. 0. 0. 0. 0. 0.
      0. 1. 1. 1. 1. 1. 1. 1. 1. 1. 1. 1. 1. 1. 1. 1. 1. 1. 1. 1. 1. 1.
      1. 1. 1. 1. 1. 1. 1. 1. 1. 1. 1. 1. 1. 1. 1. 1. 1. 1. 1. 1. 1. 1.
      1. 1. 1. 1. 1. 1. 1. 1. 1. 1. 1. 1. 0. 1. 1. 1. 1. 1. 1. 0. 0. 0.
      0. 0. 0. 0. 0. 0. 0. 0. 0. 1. 1. 1. 1. 1. 1. 1. 1. 1. 1. 1. 1. 1.
      1. 1. 1. 1. 1. 1. 1. 1. 1. 1. 1. 1. 1. 1. 1. 1. 1. 1. 1. 1. 1. 1.
      1. 1. 1. 1. 1. 1. 1. 1. 1. 1. 1. 1. 1. 1. 1. 1. 1. 1. 1. 1. 0. 0.
      1. 1. 1. 1. 1. 0. 0. 0. 0. 0. 0. 0. 0. 0. 0. 0. 0. 1. 1. 1. 1. 1.
      1. 1. 1. 1. 1. 1. 1. 1. 1. 1. 1. 1. 1. 1. 1. 1. 1. 1. 1. 1. 1. 1.
      1. 1. 1. 1. 1. 1. 1. 1. 1. 1. 1. 1. 1. 1. 1. 1. 1. 1. 1. 1. 1. 1.
      1. 1. 1. 1. 1. 0. 0. 1. 1. 1. 1. 1. 1. 0. 0. 0. 0. 0. 0. 0. 0. 0.
      0. 0. 0. 1. 1. 1. 1. 1. 0. 1. 1. 1. 1. 1. 1. 1. 1. 1. 1. 1. 1. 1.
      1. 1. 1. 1. 1. 1. 1. 1. 1. 1. 1. 1. 1. 1. 1. 1. 1. 1. 1. 1. 1. 1.
      1. 1. 1. 1. 1. 1. 1. 1. 1. 1. 1. 1. 1. 1. 0. 1. 1. 1. 1. 1. 1. 0.
      0. 0. 0. 0. 0. 0. 0. 0. 0. 0. 0. 1. 1. 1. 1. 1. 1. 0. 1. 1. 1. 1.
      1. 0. 1. 1. 1. 1. 1. 1. 1. 1. 1. 1. 1. 1. 1. 1. 1. 1. 1. 1. 1. 1.
      1. 1. 1. 1. 1. 1. 1. 1. 1. 1. 1. 1. 1. 1. 1. 1. 1. 1. 1. 1. 1. 0.
      0. 1. 1. 1. 1. 1. 0. 0. 0. 0. 0. 0. 0. 0. 0. 0. 0. 0. 1. 1. 1. 1.
      1. 1. 0. 0. 0. 1. 1. 0. 0. 0. 0. 1. 1. 1. 0. 0. 0. 1. 1. 1. 1. 0.
      0. 1. 1. 1. 1. 1. 0. 0. 1. 1. 1. 0. 0. 1. 1. 1. 1. 1. 0. 0. 1. 1.
      1. 1. 1. 1. 1. 1. 1. 1. 0. 1. 1. 1. 1. 1. 0. 0. 0. 0. 0. 0. 0. 0.
      0. 0. 0. 0. 0. 1. 1. 1. 1. 1. 0. 0. 0. 0. 0. 0. 0. 0. 0. 0. 0. 0.
      0. 0. 0. 0. 0. 0. 0. 0. 0. 0. 0. 0. 0. 0. 0. 0. 1. 0. 0. 0. 0. 0.
      0. 1. 0. 0. 0. 0. 1. 1. 1. 0. 0. 0. 0. 1. 0. 0. 0. 1. 1. 1. 1. 1.
      0. 0. 0. 0. 0. 0. 0. 0. 0. 0. 0. 0. 1. 1. 1. 1. 1. 1. 1. 0. 0. 0.
      0. 0. 0. 0. 0. 0. 0. 0. 0. 0. 0. 0. 0. 0. 0. 0. 0. 0. 0. 0. 0. 0.
      0. 0. 0. 0. 0. 0. 0. 0. 0. 0. 0. 0. 0. 0. 0. 0. 0. 0. 0. 0. 0. 0.
      0. 0. 0. 1. 1. 1. 1. 1. 0. 0. 0. 0. 0. 0. 0. 0. 0. 0. 0. 0. 0. 1.
      1. 1. 1. 1. 0. 0. 0. 0. 0. 0. 0. 0. 0. 0. 0. 0. 0. 0. 0. 0. 0. 0.
      0. 0. 0. 0. 0. 0. 0. 0. 0. 0. 0. 0. 0. 0. 0. 0. 0. 0. 0. 0. 0. 0.
      0. 0. 0. 0. 0. 0. 0. 0. 0. 0. 1. 1. 1. 1. 1. 1. 0. 0. 0. 0. 0. 0.
      0. 0. 0. 0. 0. 0. 1. 1. 1. 1. 1. 1. 1. 0. 0. 0. 0. 0. 0. 0. 0. 0.
      0. 0. 0. 0. 0. 0. 0. 0. 0. 0. 0. 0. 0. 0. 0. 0. 0. 0. 0. 0. 0. 0.
      0. 0. 0. 0. 0. 0. 0. 0. 0. 0. 0. 0. 0. 0. 0. 0. 0. 0. 0. 1. 1. 1.
      1. 1. 0. 0. 0. 0. 0. 1. 0. 0. 0. 0. 0. 0. 0. 1. 1. 1. 1. 1. 0. 0.
      0. 0. 0. 0. 0. 0. 0. 0. 0. 0. 0. 0. 0. 0. 0. 0. 0. 0. 0. 0. 0. 0.
      0. 0. 0. 0. 0. 0. 0. 0. 0. 0. 0. 0. 0. 0. 0. 0. 0. 0. 0. 0. 0. 0.
      0. 0. 0. 0. 1. 1. 1. 1. 1. 1. 1. 0. 0. 1. 1. 1. 1. 1. 1. 1. 1. 0.
      0. 1. 1. 1. 1. 1. 1. 0. 0. 0. 0. 0. 0. 0. 0. 0. 0. 0. 0. 0. 0. 0.
      0. 0. 0. 0. 0. 0. 0. 0. 0. 0. 0. 0. 0. 0. 0. 0. 0. 0. 0. 0. 0. 0.
      0. 0. 0. 0. 0. 0. 0. 0. 0. 0. 0. 0. 0. 1. 1. 1. 1. 1. 1. 1. 1. 1.
      1. 1. 1. 1. 1. 1. 1. 0. 1. 1. 1. 1. 1. 1. 1. 0. 0. 0. 0. 0. 0. 0.
      0. 0. 0. 0. 0. 0. 0. 0. 0. 0. 0. 0. 0. 0. 0. 0. 0. 0. 0. 0. 0. 0.
      0. 0. 0. 0. 0. 0. 0. 0. 0. 0. 0. 0. 0. 0. 0. 0. 0. 0. 0. 0. 0. 1.
      1. 1. 1. 1. 1. 1. 1. 1. 1. 1. 1. 1. 1. 1. 1. 1. 1. 1. 1. 1. 1. 1.
      1. 0. 0. 0. 0. 0. 0. 0. 0. 0. 0. 0. 0. 0. 0. 0. 0. 0. 0. 0. 0. 0.
      0. 0. 0. 0. 0. 0. 0. 0. 0. 0. 0. 0. 0. 0. 0. 0. 0. 0. 0. 0. 0. 0.
      0. 0. 0. 0. 0. 0. 0. 0. 1. 1. 1. 1. 1. 1. 1. 1. 1. 1. 1. 1. 1. 1.
      1. 1. 1. 1. 1. 1. 1. 1. 1. 1. 0. 0. 0. 0. 0. 0. 0. 0. 0. 0. 0. 0.
      0. 0. 0. 0. 0. 0. 0. 0. 0. 0. 0. 0. 0. 0. 0. 0. 0. 0. 0. 0. 0. 0.
      0. 0. 0. 0. 0. 0. 0. 0. 0. 0. 0. 0. 0. 0. 0. 0. 1. 1. 1. 1. 1. 1.
      1. 1. 1. 1. 1. 1. 1. 1. 1. 1. 1. 1. 1. 1. 1. 1. 1. 1. 0. 0. 0. 0.
      0. 0. 0. 0. 0. 0. 0. 0. 0. 0. 0. 0. 0. 0. 0. 0. 0. 0. 0. 0. 0. 0.
      0. 0. 0. 0. 0. 0. 0. 0. 0. 0. 0. 0. 0. 0. 0. 0. 0. 0. 0. 0. 0. 0.
      0. 0. 0. 0. 1. 1. 1. 1. 1. 1. 1. 1. 1. 1. 1. 1. 1. 1. 1. 1. 1. 1.
      1. 1. 0. 0. 0. 0. 0. 0. 0. 0. 0. 0. 0. 0. 0. 0. 0. 0. 0. 0. 0. 0.
      0. 0. 0. 0. 0. 0. 0. 0. 0. 0. 0. 0. 0. 0. 0. 0. 0. 0. 0. 0. 0. 0.
      0. 0. 0. 0. 0. 0. 0. 0. 0. 0. 0. 0. 0. 0. 0. 1. 0. 0. 1. 1. 1. 1.
      1. 1. 1. 1. 1. 1. 1. 1. 0. 0. 0. 0. 0. 0. 0. 0. 0. 0. 0. 0. 0. 0.
      0. 0. 0. 0. 0. 0. 0. 0. 0. 0. 0. 0. 0. 0. 0. 0. 0. 0. 0. 0. 0. 0.
      0. 0. 0. 0. 0. 0. 0. 0. 0. 0. 0. 0. 0. 0. 0. 0.</_>
    <_>
      0. 0. 0. 0. 0. 0. 0. 0. 0. 0. 0. 0. 0. 0. 1. 1. 1. 1. 1. 1. 1. 1.
      1. 0. 0. 0. 0. 0. 0. 0. 0. 0. 0. 0. 0. 0. 0. 0. 0. 0. 0. 0. 0. 0.
      0. 0. 0. 0. 0. 0. 0. 0. 0. 0. 0. 0. 0. 0. 0. 0. 0. 0. 0. 0. 0. 0.
      0. 0. 0. 0. 0. 0. 0. 0. 0. 0. 0. 0. 0. 0. 0. 0. 0. 1. 1. 1. 1. 1.
      1. 1. 1. 1. 1. 1. 1. 1. 1. 1. 0. 0. 0. 0. 0. 0. 0. 0. 0. 0. 0. 0.
      0. 0. 0. 0. 0. 0. 0. 0. 0. 0. 0. 0. 0. 0. 0. 0. 0. 0. 0. 0. 0. 0.
      0. 0. 0. 0. 0. 0. 0. 0. 0. 0. 0. 0. 0. 0. 0. 0. 0. 0. 0. 0. 1. 1.
      1. 1. 1. 1. 1. 1. 1. 1. 1. 1. 1. 1. 1. 1. 1. 1. 1. 1. 0. 0. 0. 0.
      0. 0. 0. 0. 0. 0. 0. 0. 0. 0. 0. 0. 0. 0. 0. 0. 0. 0. 0. 0. 0. 0.
      0. 0. 0. 0. 0. 0. 0. 0. 0. 0. 0. 0. 0. 0. 0. 0. 0. 0. 0. 0. 0. 0.
      0. 0. 1. 1. 1. 1. 1. 1. 1. 1. 1. 1. 1. 1. 1. 1. 1. 1. 1. 1. 1. 1.
      1. 1. 1. 1. 0. 0. 0. 0. 0. 0. 0. 0. 0. 0. 0. 0. 0. 0. 0. 0. 0. 0.
      0. 0. 0. 0. 0. 0. 0. 0. 0. 0. 0. 0. 0. 0. 0. 0. 0. 0. 0. 0. 0. 0.
      0. 0. 0. 0. 0. 0. 0. 0. 0. 0. 1. 1. 1. 1. 1. 1. 1. 1. 1. 1. 1. 1.
      1. 1. 1. 1. 1. 1. 1. 1. 1. 1. 1. 1. 0. 0. 0. 0. 0. 0. 0. 0. 0. 0.
      0. 0. 0. 0. 0. 0. 0. 0. 0. 0. 0. 0. 0. 0. 0. 0. 0. 0. 0. 0. 0. 0.
      0. 0. 0. 0. 0. 0. 0. 0. 0. 0. 0. 0. 0. 0. 0. 0. 0. 0. 1. 1. 1. 1.
      1. 1. 1. 1. 1. 1. 1. 1. 1. 1. 1. 1. 1. 0. 1. 1. 1. 1. 1. 0. 0. 0.
      0. 0. 0. 0. 0. 0. 0. 0. 0. 0. 0. 0. 0. 0. 0. 0. 0. 0. 0. 0. 0. 0.
      0. 0. 0. 0. 0. 0. 0. 0. 0. 0. 0. 0. 0. 0. 0. 0. 0. 0. 0. 0. 0. 0.
      0. 0. 0. 0. 1. 1. 1. 1. 1. 1. 1. 1. 1. 1. 1. 1. 1. 1. 1. 1. 0. 0.
      1. 1. 1. 1. 1. 1. 0. 0. 0. 0. 0. 0. 0. 0. 0. 0. 0. 0. 0. 0. 0. 0.
      0. 0. 0. 0. 0. 0. 0. 0. 0. 0. 0. 0. 0. 0. 0. 0. 0. 0. 0. 0. 0. 0.
      0. 0. 0. 0. 0. 0. 0. 0. 0. 0. 0. 0. 1. 1. 1. 1. 1. 1. 0. 0. 0. 0.
      0. 0. 0. 0. 0. 0. 0. 0. 1. 1. 1. 1. 1. 1. 0. 0. 0. 0. 0. 0. 0. 0.
      0. 0. 0. 0. 0. 0. 0. 0. 0. 0. 0. 0. 0. 0. 0. 0. 0. 0. 0. 0. 0. 0.
      0. 0. 0. 0. 0. 0. 0. 0. 0. 0. 0. 0. 0. 0. 0. 0. 0. 0. 0. 0. 1. 1.
      1. 1. 1. 1. 0. 0. 0. 0. 0. 0. 0. 0. 0. 0. 0. 0. 1. 1. 1. 1. 1. 1.
      0. 0. 0. 0. 0. 0. 0. 0. 0. 0. 0. 0. 0. 0. 0. 0. 0. 0. 0. 0. 0. 0.
      0. 0. 0. 0. 0. 0. 0. 0. 0. 0. 0. 0. 0. 0. 0. 0. 0. 0. 1. 1. 1. 1.
      0. 1. 1. 1. 1. 1. 1. 1. 1. 1. 1. 1. 0. 0. 0. 0. 0. 0. 0. 0. 0. 0.
      0. 0. 1. 1. 1. 1. 1. 1. 0. 0. 0. 0. 0. 0. 0. 0. 0. 0. 0. 0. 0. 0.
      0. 0. 0. 0. 0. 0. 0. 0. 0. 0. 0. 0. 0. 0. 0. 0. 0. 0. 0. 1. 1. 1.
      1. 1. 0. 1. 1. 1. 1. 1. 1. 1. 1. 1. 1. 1. 1. 1. 1. 1. 1. 1. 0. 0.
      0. 0. 0. 0. 0. 0. 0. 0. 0. 0. 1. 1. 1. 1. 1. 1. 0. 0. 0. 0. 0. 0.
      0. 0. 0. 0. 0. 0. 0. 0. 0. 0. 0. 0. 0. 0. 0. 1. 1. 1. 1. 1. 1. 1.
      1. 1. 1. 1. 1. 1. 1. 1. 1. 1. 1. 1. 1. 1. 1. 1. 1. 1. 1. 1. 1. 1.
      1. 1. 1. 1. 1. 1. 0. 0. 0. 0. 0. 0. 0. 0. 0. 0. 0. 0. 1. 1. 1. 1.
      1. 1. 0. 0. 0. 0. 0. 0. 0. 0. 0. 1. 1. 1. 1. 0. 1. 1. 1. 1. 1. 1.
      1. 1. 1. 1. 1. 1. 1. 1. 1. 1. 1. 1. 1. 1. 1. 1. 1. 1. 1. 1. 1. 1.
      1. 1. 1. 1. 1. 1. 1. 1. 1. 1. 1. 1. 1. 1. 0. 0. 0. 0. 0. 0. 0. 0.
      0. 0. 0. 0. 1. 1. 1. 1. 1. 1. 0. 0. 0. 0. 0. 0. 0. 0. 0. 1. 1. 1.
      1. 0. 1. 1. 1. 1. 1. 1. 1. 1. 1. 1. 1. 1. 1. 1. 1. 1. 1. 1. 1. 1.
      1. 1. 1. 1. 1. 1. 1. 1. 1. 1. 1. 1. 1. 1. 1. 1. 1. 1. 1. 1. 1. 1.
      0. 0. 0. 0. 0. 0. 0. 0. 0. 0. 0. 0. 0. 1. 1. 1. 1. 1. 1. 1. 1. 1.
      1. 1. 1. 1. 1. 1. 1. 1. 1. 1. 1. 1. 1. 1. 1. 1. 1. 1. 1. 1. 1. 1.
      1. 1. 1. 1. 1. 1. 1. 1. 1. 1. 1. 1. 1. 1. 1. 1. 1. 1. 1. 1. 1. 1.
      1. 1. 0. 1. 1. 1. 1. 1. 0. 0. 0. 0. 0. 0. 0. 0. 0. 0. 0. 0. 0. 1.
      1. 1. 1. 1. 1. 1. 1. 1. 1. 1. 1. 1. 1. 1. 1. 1. 1. 1. 1. 1. 1. 1.
      1. 1. 1. 1. 1. 1. 1. 1. 1. 1. 1. 1. 1. 1. 1. 1. 1. 1. 1. 1. 1. 1.
      1. 1. 1. 1. 1. 1. 1. 1. 1. 1. 0. 1. 1. 1. 1. 1. 0. 0. 0. 0. 0. 0.
      0. 0. 0. 0. 0. 0. 0. 1. 1. 1. 1. 1. 1. 1. 1. 1. 1. 1. 1. 1. 1. 1.
      1. 1. 1. 1. 1. 1. 1. 1. 1. 1. 1. 1. 1. 1. 1. 1. 1. 1. 1. 1. 1. 1.
      1. 1. 1. 1. 1. 1. 1. 1. 1. 1. 1. 1. 1. 1. 1. 1. 1. 1. 0. 1. 1. 1.
      1. 1. 1. 0. 0. 0. 0. 0. 0. 0. 0. 0. 0. 0. 0. 1. 1. 1. 1. 1. 1. 1.
      1. 1. 1. 1. 1. 1. 1. 1. 1. 1. 1. 1. 1. 1. 1. 1. 1. 1. 1. 1. 1. 1.
      1. 1. 1. 1. 1. 1. 1. 1. 1. 1. 1. 1. 1. 1. 1. 1. 1. 1. 1. 1. 1. 1.
      1. 1. 1. 1. 0. 1. 1. 1. 1. 1. 1. 0. 0. 0. 0. 0. 0. 0. 0. 0. 0. 0.
      0. 1. 1. 1. 1. 1. 1. 1. 1. 1. 1. 1. 1. 1. 1. 1. 1. 1. 1. 1. 1. 1.
      1. 1. 1. 1. 1. 1. 1. 1. 1. 1. 1. 1. 1. 1. 1. 1. 1. 1. 1. 1. 1. 1.
      1. 1. 1. 1. 1. 1. 1. 0. 1. 1. 1. 0. 0. 1. 1. 1. 1. 1. 1. 0. 0. 0.
      0. 0. 0. 0. 0. 0. 0. 0. 0. 1. 1. 1. 1. 1. 1. 1. 1. 1. 1. 1. 1. 1.
      1. 1. 1. 1. 1. 1. 1. 1. 1. 1. 1. 1. 1. 1. 1. 1. 1. 1. 1. 1. 1. 1.
      1. 1. 0. 1. 1. 1. 1. 1. 0. 0. 0. 0. 0. 0. 0. 0. 0. 0. 0. 0. 0. 0.
      1. 1. 1. 1. 1. 0. 0. 0. 0. 0. 0. 0. 0. 0. 0. 0. 0. 1. 1. 1. 1. 1.
      1. 1. 1. 1. 1. 1. 1. 1. 1. 1. 1. 1. 1. 1. 1. 1. 1. 1. 1. 1. 0. 1.
      1. 1. 1. 1. 0. 0. 0. 0. 0. 0. 0. 0. 0. 0. 0. 0. 0. 0. 0. 0. 0. 0.
      0. 0. 0. 0. 0. 0. 0. 0. 1. 1. 1. 1. 1. 0. 0. 0. 0. 0. 0. 0. 0. 0.
      0. 0. 0. 1. 1. 1. 1. 1. 1. 1. 1. 1. 1. 1. 1. 1. 1. 1. 1. 1. 1. 1.
      0. 1. 1. 1. 0. 0. 0. 0. 0. 0. 0. 0. 0. 0. 0. 0. 0. 0. 0. 0. 0. 0.
      0. 0. 0. 0. 0. 0. 0. 0. 0. 0. 0. 0. 0. 0. 0. 0. 1. 1. 1. 1. 1. 0.
      0. 0. 0. 0. 0. 0. 0. 0. 0. 0. 0. 0. 1. 1. 1. 1. 1. 1. 1. 1. 1. 1.
      1. 0. 0. 0. 0. 0. 0. 0. 0. 0. 0. 0. 0. 0. 0. 0. 0. 0. 0. 0. 0. 0.
      0. 0. 0. 0. 0. 0. 0. 0. 0. 0. 0. 0. 0. 0. 0. 0. 0. 0. 0. 0. 0. 0.
      0. 0. 1. 1. 1. 1. 1. 0. 0. 0. 0. 0. 0. 0. 0. 0. 0. 0. 0. 1. 1. 1.
      1. 1. 1. 0. 0. 0. 0. 0. 0. 0. 0. 0. 0. 0. 0. 0. 0. 0. 0. 0. 0. 0.
      0. 0. 0. 0. 0. 0. 0. 0. 0. 0. 0. 0. 0. 0. 0. 0. 0. 0. 0. 0. 0. 0.
      0. 0. 0. 0. 0. 0. 0. 0. 0. 0. 1. 1. 1. 1. 1. 0. 0. 0. 0. 0. 0. 0.
      0. 0. 0. 0. 0. 1. 1. 1. 1. 1. 1. 1. 0. 0. 0. 0. 0. 0. 0. 0. 0. 0.
      0. 0. 0. 0. 0. 0. 0. 0. 0. 0. 0. 0. 0. 0. 0. 0. 0. 0. 0. 0. 0. 0.
      0. 0. 0. 0. 0. 0. 0. 0. 0. 0. 0. 0. 0. 0. 0. 0. 0. 0. 1. 1. 1. 1.
      1. 0. 0. 0. 0. 0. 0. 0. 0. 0. 0. 0. 0. 1. 1. 1. 1. 1. 1. 0. 0. 0.
      0. 0. 0. 0. 0. 0. 0. 0. 0. 0. 0. 0. 0. 0. 0. 0. 0. 0. 0. 0. 0. 0.
      0. 0. 0. 0. 0. 0. 0. 0. 0. 0. 0. 0. 0. 0. 0. 0. 0. 0. 0. 0. 0. 0.
      0. 0. 0. 0. 1. 1. 1. 1. 1. 0. 0. 0. 0. 0. 0. 0. 0. 0. 0. 0. 0. 0.
      0. 1. 1. 1. 1. 0. 0. 0. 0. 0. 0. 0. 0. 0. 0. 0. 0. 0. 0. 0. 0. 0.
      0. 0. 0. 0. 0. 0. 0. 0. 0. 0. 0. 0. 0. 0. 0. 0. 0. 0. 0. 0. 0. 0.
      0. 0. 0. 0. 0. 0. 0. 0. 0. 0. 0. 0. 1. 1. 1. 1. 1. 0. 0. 0. 0. 0.
      0. 0. 0. 0. 0. 0. 0. 0. 1. 1. 1. 1. 1. 0. 0. 0. 0. 0. 0. 0. 0. 0.
      0. 0. 0. 0. 0. 0. 0. 0. 0. 0. 0. 0. 0. 0. 0. 0. 0. 0. 0. 0. 0. 0.
      0. 0. 0. 0. 0. 0. 0. 0. 0. 0. 0. 0. 0. 0. 0. 0. 0. 0. 0. 0. 1. 1.
      1. 1. 1. 0. 0. 0. 0. 0. 0. 0. 0. 0. 0. 0. 0. 0. 1. 1. 1. 1. 1. 0.
      0. 0. 0. 0. 0. 0. 0. 0. 0. 0. 0. 0. 0. 0. 0. 0. 0. 0. 0. 0. 0. 0.
      0. 0. 0. 0. 0. 0. 0. 0. 0. 0. 0. 0. 0. 0. 0. 0. 0. 0. 0. 0. 0. 0.
      0. 0. 0. 0. 0. 0. 1. 1. 1. 1. 1. 0. 0. 0. 0. 0. 0. 0. 0. 0. 0. 0.
      0. 0. 1. 1. 1. 1. 1. 1. 0. 0. 0. 0. 0. 0. 0. 0. 0. 0. 0. 0. 0. 0.
      0. 0. 0. 0. 0. 0. 0. 0. 0. 0. 0. 0. 0. 0. 0. 0. 0. 0. 0. 0. 0. 0.
      0. 0. 0. 0. 0. 0. 0. 0. 0. 0. 0. 0. 0. 0. 1. 1. 1. 1. 1. 0. 0. 0.
      0. 1. 1. 1. 1. 1. 1. 1. 1. 0. 1. 1. 1. 1. 1. 1. 1. 1. 0. 0. 0. 0.
      0. 0. 0. 0. 0. 0. 0. 0. 0. 0. 0. 0. 0. 0. 0. 0. 0. 0. 0. 0. 0. 0.
      0. 0. 0. 0. 0. 0. 0. 0. 0. 0. 0. 0. 0. 0. 0. 0. 0. 0. 0. 0. 0. 0.
      1. 1. 1. 1. 1. 1. 0. 0. 1. 1. 1. 1. 1. 1. 1. 1. 1. 0. 1. 1. 1. 1.
      1. 1. 1. 1. 0. 0. 0. 0. 0. 0. 0. 0. 0. 0. 0. 0. 0. 0. 0. 0. 0. 0.
      0. 0. 0. 0. 0. 0. 0. 0. 0. 0. 0. 0. 0. 0. 0. 0. 0. 0. 0. 0. 0. 0.
      0. 0. 0. 0. 0. 0. 0. 0. 1. 1. 1. 1. 1. 1. 1. 1. 1. 1. 1. 1. 1. 1.
      1. 1. 1. 1. 1. 1. 1. 1. 1. 1. 1. 0. 0. 0. 0. 0. 0. 0. 0. 0. 0. 0.
      0. 0. 0. 0. 0. 0. 0. 0. 0. 0. 0. 0. 0. 0. 0. 0. 0. 0. 0. 0. 0. 0.
      0. 0. 0. 0. 0. 0. 0. 0. 0. 0. 0. 0. 0. 0. 0. 0. 1. 1. 1. 1. 1. 1.
      1. 1. 1. 1. 1. 1. 1. 1. 1. 1. 1. 1. 1. 1. 1. 1. 1. 1. 1. 0. 0. 0.
      0. 0. 0. 0. 0. 0. 0. 0. 0. 0. 0. 0. 0. 0. 0. 0. 0. 0. 0. 0. 0. 0.
      0. 0. 0. 0. 0. 0. 0. 0. 0. 0. 0. 0. 0. 0. 0. 0. 0. 0. 0. 0. 1. 1.
      0. 0. 1. 1. 1. 1. 1. 1. 1. 1. 1. 1. 1. 1. 1. 1. 1. 1. 1. 1. 1. 1.
      1. 1. 1. 1. 1. 0. 0. 0. 0. 0. 0. 0. 0. 0. 0. 0. 0. 0. 0. 0. 0. 0.
      0. 0. 0. 0. 0. 0. 0. 0. 0. 0. 0. 0. 0. 0. 0. 0. 0. 0. 0. 0. 0. 0.
      0. 0. 0. 0. 0. 1. 1. 1. 0. 0. 1. 1. 1. 1. 1. 1. 1. 1. 1. 1. 1. 1.
      1. 1. 1. 1. 1. 1. 1. 1. 1. 1. 1. 1. 0. 0. 0. 0. 0. 0. 0. 0. 0. 0.
      0. 0. 0. 0. 0. 0. 0. 0. 0. 0. 0. 0. 0. 0. 0. 0. 0. 0. 0. 0. 0. 0.
      0. 0. 0. 0. 0. 0. 0. 0. 0. 0. 0. 0. 1. 1. 1. 1.</_>
    <_>
      1. 1. 1. 0. 0. 0. 0. 0. 0. 0. 0. 0. 0. 0. 0. 0. 0. 0. 0. 0. 0. 0.
      0. 0. 0. 0. 0. 0. 0. 0. 0. 0. 0. 0. 0. 0. 0. 0. 0. 0. 0. 0. 0. 0.
      0. 0. 0. 0. 0. 0. 0. 0. 0. 1. 1. 1. 1. 0. 1. 1. 0. 1. 0. 1. 0. 0.
      0. 0. 0. 0. 0. 0. 0. 0. 1. 0. 0. 0. 0. 0. 0. 0. 0. 0. 0. 0. 0. 0.
      0. 0. 0. 0. 0. 0. 0. 0. 0. 0. 0. 0. 0. 0. 0. 0. 0. 0. 0. 0. 0. 0.
      0. 0. 0. 0. 0. 0. 0. 0. 0. 0. 0. 0. 0. 0. 0. 1. 1. 1. 1. 1. 1. 1.
      1. 1. 1. 1. 1. 1. 1. 1. 1. 1. 0. 1. 0. 1. 0. 0. 0. 0. 0. 0. 0. 0.
      0. 0. 0. 0. 0. 0. 0. 0. 0. 0. 0. 0. 0. 0. 0. 0. 0. 0. 0. 0. 0. 0.
      0. 0. 0. 0. 0. 0. 0. 0. 0. 0. 0. 0. 0. 0. 0. 0. 0. 0. 0. 0. 0. 1.
      1. 1. 1. 1. 1. 1. 1. 1. 1. 1. 1. 1. 1. 1. 1. 1. 1. 1. 1. 1. 1. 1.
      0. 0. 0. 0. 0. 0. 0. 0. 0. 0. 0. 0. 0. 0. 0. 0. 0. 0. 0. 0. 0. 0.
      0. 0. 0. 0. 0. 0. 0. 0. 0. 0. 0. 0. 0. 0. 0. 0. 0. 0. 0. 0. 0. 0.
      0. 0. 0. 0. 0. 0. 1. 1. 1. 1. 1. 1. 1. 1. 1. 1. 1. 1. 1. 1. 1. 1.
      1. 1. 1. 1. 1. 1. 1. 1. 1. 0. 0. 0. 0. 0. 0. 0. 0. 0. 0. 0. 0. 0.
      0. 0. 0. 0. 0. 0. 0. 0. 0. 0. 0. 0. 0. 0. 0. 0. 0. 0. 0. 0. 0. 0.
      0. 0. 0. 0. 0. 0. 0. 0. 0. 0. 0. 0. 0. 0. 1. 1. 1. 1. 1. 1. 1. 1.
      1. 1. 1. 1. 1. 1. 1. 1. 1. 1. 1. 1. 1. 1. 1. 1. 1. 0. 0. 0. 0. 0.
      0. 0. 0. 0. 0. 0. 0. 0. 0. 0. 0. 0. 0. 0. 0. 0. 0. 0. 0. 0. 0. 0.
      0. 0. 0. 0. 0. 0. 0. 0. 0. 0. 0. 0. 0. 0. 0. 0. 0. 0. 0. 0. 0. 0.
      0. 1. 1. 1. 1. 1. 1. 0. 0. 1. 1. 1. 1. 1. 1. 1. 1. 1. 1. 1. 1. 1.
      1. 1. 1. 1. 0. 0. 0. 0. 0. 0. 0. 0. 0. 0. 0. 0. 0. 0. 0. 0. 0. 0.
      0. 0. 0. 0. 0. 0. 0. 0. 0. 0. 0. 0. 0. 0. 0. 0. 0. 0. 0. 0. 0. 0.
      0. 0. 0. 0. 0. 0. 0. 0. 0. 1. 1. 1. 1. 1. 1. 1. 0. 1. 1. 1. 1. 1.
      1. 1. 1. 0. 0. 1. 1. 1. 1. 1. 1. 1. 0. 0. 0. 0. 0. 0. 0. 0. 0. 0.
      0. 0. 0. 0. 0. 0. 0. 0. 0. 0. 0. 0. 0. 0. 0. 0. 0. 0. 0. 0. 0. 0.
      0. 0. 0. 0. 0. 0. 0. 0. 0. 0. 0. 0. 0. 0. 0. 0. 0. 1. 1. 1. 1. 1.
      1. 1. 0. 0. 1. 1. 1. 0. 1. 0. 0. 0. 0. 0. 1. 1. 1. 1. 1. 1. 0. 0.
      0. 0. 0. 0. 0. 0. 0. 0. 0. 0. 0. 0. 0. 0. 0. 0. 0. 0. 0. 0. 0. 0.
      0. 0. 0. 0. 0. 0. 0. 0. 0. 0. 0. 0. 0. 0. 0. 0. 0. 0. 0. 0. 0. 0.
      0. 0. 0. 0. 1. 1. 1. 1. 1. 0. 0. 0. 0. 0. 0. 0. 0. 0. 0. 0. 0. 0.
      1. 1. 1. 1. 1. 1. 0. 0. 0. 0. 0. 0. 0. 0. 0. 0. 0. 0. 0. 0. 0. 0.
      0. 0. 0. 0. 0. 0. 0. 0. 0. 0. 0. 0. 0. 0. 0. 0. 0. 0. 0. 0. 0. 0.
      0. 0. 0. 0. 0. 0. 0. 0. 0. 0. 0. 0. 1. 1. 1. 1. 1. 1. 0. 0. 0. 0.
      0. 0. 0. 0. 0. 0. 0. 0. 1. 1. 1. 1. 1. 1. 0. 0. 0. 0. 0. 0. 0. 0.
      0. 0. 0. 0. 0. 0. 0. 0. 0. 0. 0. 0. 0. 0. 0. 0. 0. 0. 0. 0. 0. 0.
      0. 0. 0. 0. 0. 0. 0. 0. 0. 0. 0. 0. 0. 0. 0. 0. 0. 0. 0. 0. 1. 1.
      1. 1. 1. 0. 0. 0. 0. 0. 0. 0. 0. 0. 0. 0. 0. 0. 1. 1. 1. 1. 1. 1.
      0. 0. 0. 0. 0. 0. 0. 0. 0. 0. 0. 0. 0. 0. 0. 0. 0. 0. 0. 0. 0. 0.
      0. 0. 0. 0. 0. 0. 0. 0. 0. 0. 0. 0. 0. 0. 0. 0. 0. 0. 0. 0. 0. 0.
      0. 0. 0. 0. 0. 0. 1. 1. 1. 1. 1. 1. 0. 0. 0. 0. 0. 0. 0. 0. 0. 0.
      0. 0. 1. 1. 1. 1. 1. 1. 0. 0. 0. 0. 0. 0. 0. 0. 0. 0. 0. 0. 0. 0.
      0. 0. 0. 0. 0. 0. 0. 0. 0. 0. 0. 0. 0. 0. 0. 0. 0. 0. 0. 0. 0. 0.
      0. 0. 0. 0. 0. 0. 0. 0. 0. 0. 0. 0. 0. 1. 1. 1. 1. 1. 1. 1. 0. 0.
      0. 0. 0. 0. 0. 0. 0. 0. 0. 0. 1. 1. 1. 1. 1. 0. 0. 0. 0. 0. 0. 0.
      1. 0. 0. 0. 0. 1. 1. 0. 0. 0. 0. 0. 1. 1. 0. 0. 0. 1. 1. 1. 1. 0.
      0. 0. 0. 1. 0. 0. 0. 0. 1. 1. 1. 0. 0. 1. 1. 1. 1. 1. 0. 0. 0. 1.
      1. 1. 1. 1. 1. 0. 0. 0. 0. 0. 0. 0. 0. 0. 0. 0. 0. 1. 1. 1. 1. 1.
      1. 0. 0. 0. 0. 1. 1. 1. 1. 1. 1. 1. 1. 1. 1. 1. 1. 1. 1. 1. 1. 1.
      1. 0. 1. 1. 1. 1. 1. 0. 1. 1. 1. 1. 1. 1. 1. 1. 1. 1. 1. 1. 1. 1.
      1. 1. 1. 1. 1. 1. 1. 1. 1. 1. 1. 1. 1. 1. 0. 0. 0. 0. 0. 0. 0. 0.
      0. 0. 0. 0. 1. 1. 1. 1. 1. 0. 0. 0. 0. 1. 1. 1. 1. 1. 1. 1. 1. 1.
      1. 1. 1. 1. 1. 1. 1. 1. 1. 1. 1. 1. 1. 1. 1. 1. 1. 1. 1. 1. 1. 1.
      1. 1. 1. 1. 1. 1. 1. 1. 1. 1. 1. 1. 1. 1. 1. 1. 1. 1. 1. 1. 1. 1.
      0. 0. 0. 0. 0. 0. 0. 0. 0. 0. 0. 1. 1. 1. 1. 1. 1. 0. 0. 1. 1. 1.
      1. 1. 1. 1. 1. 1. 1. 1. 1. 1. 1. 1. 1. 1. 1. 1. 1. 1. 1. 1. 1. 1.
      1. 1. 1. 1. 1. 1. 1. 1. 1. 1. 1. 1. 1. 1. 1. 1. 1. 1. 1. 1. 1. 1.
      1. 1. 1. 1. 1. 1. 1. 1. 0. 0. 0. 0. 0. 0. 0. 0. 0. 0. 0. 0. 1. 1.
      1. 1. 1. 0. 1. 1. 1. 1. 1. 1. 1. 1. 1. 1. 1. 1. 1. 1. 1. 1. 1. 1.
      1. 1. 1. 1. 1. 1. 1. 1. 1. 1. 1. 1. 1. 1. 1. 1. 1. 1. 1. 1. 1. 1.
      1. 1. 1. 1. 1. 1. 1. 1. 1. 1. 1. 1. 1. 1. 1. 1. 0. 0. 0. 0. 0. 0.
      0. 0. 0. 0. 0. 0. 1. 1. 1. 1. 1. 0. 0. 1. 1. 1. 1. 1. 1. 1. 1. 1.
      1. 1. 1. 1. 1. 1. 1. 1. 1. 1. 1. 1. 1. 1. 1. 1. 1. 1. 1. 1. 1. 1.
      1. 1. 1. 1. 1. 1. 1. 1. 1. 1. 1. 1. 1. 1. 1. 1. 1. 1. 1. 1. 1. 1.
      1. 0. 0. 0. 0. 0. 0. 0. 0. 0. 0. 0. 0. 0. 1. 1. 1. 1. 1. 0. 0. 1.
      1. 1. 1. 1. 1. 1. 1. 1. 1. 1. 1. 1. 1. 1. 1. 1. 1. 1. 1. 1. 1. 1.
      1. 1. 1. 1. 1. 1. 1. 1. 1. 1. 1. 1. 1. 1. 1. 1. 1. 1. 1. 1. 1. 1.
      1. 1. 1. 1. 1. 1. 1. 1. 1. 1. 0. 0. 0. 0. 0. 0. 0. 0. 0. 0. 0. 0.
      1. 1. 1. 1. 1. 0. 0. 1. 1. 1. 1. 1. 1. 1. 1. 1. 1. 1. 1. 1. 1. 1.
      1. 1. 1. 1. 1. 1. 1. 1. 1. 1. 1. 1. 1. 1. 1. 1. 1. 1. 1. 1. 1. 1.
      1. 1. 1. 1. 1. 1. 1. 1. 1. 1. 1. 1. 1. 1. 1. 1. 1. 1. 0. 0. 0. 0.
      0. 0. 0. 0. 0. 0. 0. 0. 1. 1. 1. 1. 1. 0. 0. 0. 0. 0. 1. 1. 1. 1.
      1. 0. 1. 1. 1. 1. 1. 1. 1. 1. 1. 1. 1. 0. 0. 1. 1. 1. 1. 1. 1. 1.
      1. 1. 1. 1. 0. 1. 1. 1. 1. 1. 1. 1. 1. 1. 1. 1. 0. 1. 1. 1. 1. 1.
      1. 1. 1. 1. 0. 0. 0. 0. 0. 0. 0. 0. 0. 0. 0. 0. 1. 1. 1. 1. 1. 0.
      0. 0. 0. 0. 0. 1. 1. 1. 0. 0. 1. 1. 1. 0. 0. 0. 0. 1. 0. 0. 0. 0.
      0. 1. 1. 1. 0. 0. 0. 1. 1. 1. 1. 0. 0. 1. 1. 1. 1. 0. 0. 0. 1. 1.
      0. 0. 0. 0. 1. 1. 1. 1. 1. 1. 1. 1. 0. 0. 0. 0. 0. 0. 0. 0. 0. 0.
      0. 0. 1. 1. 1. 1. 1. 0. 0. 0. 0. 0. 0. 0. 0. 0. 0. 0. 0. 0. 0. 0.
      0. 0. 0. 0. 0. 0. 0. 0. 0. 0. 0. 0. 0. 0. 0. 0. 0. 0. 0. 0. 0. 0.
      0. 0. 0. 0. 0. 0. 0. 0. 0. 0. 0. 0. 0. 0. 1. 1. 1. 1. 1. 0. 0. 0.
      0. 0. 0. 0. 0. 0. 0. 0. 0. 0. 1. 1. 1. 1. 1. 0. 0. 0. 0. 0. 0. 0.
      0. 0. 0. 0. 0. 0. 0. 0. 0. 0. 0. 0. 0. 0. 0. 0. 0. 0. 0. 0. 0. 0.
      0. 0. 0. 0. 0. 0. 0. 0. 0. 0. 0. 0. 0. 0. 0. 0. 0. 0. 0. 0. 0. 0.
      1. 1. 1. 1. 1. 1. 0. 0. 0. 0. 0. 0. 0. 0. 0. 0. 0. 0. 1. 1. 1. 1.
      1. 0. 0. 0. 0. 0. 0. 0. 0. 0. 0. 0. 0. 0. 0. 0. 0. 0. 0. 0. 0. 0.
      0. 0. 0. 0. 0. 0. 0. 0. 0. 0. 0. 0. 0. 0. 0. 0. 0. 0. 0. 0. 0. 0.
      0. 0. 0. 0. 0. 0. 0. 0. 1. 1. 1. 1. 1. 0. 0. 0. 0. 0. 0. 0. 0. 0.
      0. 0. 0. 0. 1. 1. 1. 1. 1. 1. 0. 0. 0. 0. 0. 0. 0. 0. 0. 0. 0. 0.
      0. 0. 0. 0. 0. 0. 0. 0. 0. 0. 0. 0. 0. 0. 0. 0. 0. 0. 0. 0. 0. 0.
      0. 0. 0. 0. 0. 0. 0. 0. 0. 0. 0. 0. 0. 0. 0. 0. 1. 1. 1. 1. 1. 1.
      0. 0. 0. 0. 0. 0. 0. 0. 0. 0. 0. 0. 1. 1. 1. 1. 1. 1. 0. 0. 0. 0.
      0. 0. 0. 0. 0. 0. 0. 0. 0. 0. 0. 0. 0. 0. 0. 0. 0. 0. 0. 0. 0. 0.
      0. 0. 0. 0. 0. 0. 0. 0. 0. 0. 0. 0. 0. 0. 0. 0. 0. 0. 0. 0. 0. 0.
      0. 0. 1. 1. 1. 1. 1. 1. 0. 0. 0. 0. 0. 0. 0. 0. 0. 0. 0. 0. 1. 1.
      1. 1. 1. 1. 0. 0. 0. 0. 0. 0. 0. 0. 0. 0. 0. 0. 0. 0. 0. 0. 0. 0.
      0. 0. 0. 0. 0. 0. 0. 0. 0. 0. 0. 0. 0. 0. 0. 0. 0. 0. 0. 0. 0. 0.
      0. 0. 0. 0. 0. 0. 0. 0. 0. 0. 1. 1. 1. 1. 1. 0. 0. 0. 0. 1. 1. 1.
